,0,1,2,3,4,5,6,7,8,9,10,11,12,13,14,15,16,17,18,19,20,21,22,23,24,25,26,27,28,29,30,31,32,33,34,35,36,37,38,39,40,41,42,43,44,45,46,47,48,49,50,51,52,53,54,55,56,57,58,59,60,61,62,63,64,65,66,67,68,69,70,71,72,73,74,75,76,77,78,79,80,81,82,83,84,85,86,87,88,89,90,91,92,93,94,95,96,97,98,99
reuters-topics/grain/article579.txt,43.18956016171239,-5.086039527302003,-2.9838733152427386,7.8290343208366915,6.1769669257962185,-8.212140271137706,-9.910820296561997,-2.9962948962656246,1.302735258701932,0.24956590615123272,-0.20257884542190213,0.5002454451515662,-2.5392986744884865,5.512797247924735,1.1347397093872251,-1.8129275753752354,-1.3407884962841123,-1.2604237246653158,-4.530073880700669,0.33971183470169997,-1.8501296780535754,4.119172306896148,-1.653950296208518,-0.1915762998239465,-0.9920112468299719,-0.6753188959679367,-1.674102579968129,0.8865350146470945,-1.0932795207550414,1.7111491314246718,2.912630701571104,-0.23305845255683827,-0.5628617147766997,-2.4053982948649133,-0.9271958612700425,-1.0028359243009006,-0.22014236336023077,0.34375147407549056,2.0448647358725367,-0.2829922193515585,-1.228579718095813,-1.4374681612787612,0.385093551462525,-2.513704848749609,3.3567368533887376,0.40188397574168827,-0.02900038279066353,1.0081456341142478,0.9598932462720661,-2.790217548426447,-1.6767893832507916,0.37816972034598967,-0.6272217354584055,1.033724266156375,0.12690000081660713,-0.2464048867530566,-1.8020521649072938,1.9404778765953987,-2.0613785166465677,1.0185881466703062,-0.886156917291266,1.6136892742414977,0.29126188418757154,3.087530310476598,-0.5300656506313814,1.5094398847619708,-0.6637262378115159,-0.9217207046652831,0.5804856806556069,0.743386709892155,0.3446893332047563,-0.693134661960012,-1.9187222845353318,-0.23949079507301982,-1.1216997961257005,0.006126446351003466,-1.391335445711828,-0.08369358836390221,1.009943821009112,-1.7400182699099755,0.8707991668197131,1.1893408417348021,-1.7686920910169497,1.6983478170382356,0.7763494436149915,1.7664826404736376,-0.858036083127946,-1.4318329861862773,0.24128759414794593,3.381133840041739,-2.831864364047659,-2.184546056184168,0.35060623281040804,-1.0839972835845058,-0.3772763907249008,2.9814144968525893,0.12452082785055549,2.5488017894568595,1.590405178663888,-0.25352507096736043
reuters-topics/grain/article545.txt,19.313520328640713,-2.277486460548818,-1.0549739484335703,2.2688616717733208,3.1831006735038088,3.1371738200463204,0.23839463189699675,-3.4193980758775417,0.6678794046199864,0.2778746952504924,-2.8941749053830446,-1.1523995435992664,-0.6643643771061593,-0.3708723510725296,1.4976916979870385,-0.7168906754385305,-0.37735507467495016,-0.32732443993398586,0.8797283464383603,1.5239072123752428,1.0062173520175322,1.584939749454512,0.9475106556916522,2.238738230419364,0.3236503410667746,-0.16788469622070204,-0.4848453773633626,1.8894347931325561,1.071828184932001,-0.16758310929673953,-0.23704866648562836,-0.06520208488236456,-2.4653296839450873,0.1318074395089062,1.3791975907680982,-1.8582848217982537,-1.2428744510106993,0.7362938462304056,0.4586084496105977,-1.6480109602021151,0.9142398156629441,0.48401185115012174,2.05201260928786,0.3027214268011902,-0.6173303967429584,-0.8958960002223408,-0.05242761730283969,-3.1647119246015203,-2.7490321441219403,1.3302620728055283,1.4997408192884867,1.8441290123322378,-0.7279269298174875,-1.7424196246202823,0.19036230220559328,1.506526407708732,0.7626924477997106,-0.5200179981105174,0.040122228802851385,3.002851229345753,-0.308122164929359,-0.3745436103651843,1.4722445722895048,-0.08404436699996787,-1.6361047662793426,1.0057054455192245,-1.9883264206474809,0.40039015387445376,3.1911144516064867,-0.6666269364287786,0.9152512669185844,0.29046906382081533,-0.4597705880520907,2.153383212667244,0.17198704800385964,1.6880494519868023,-1.1102155230874644,1.9870054674465392,0.8052610248239482,1.3445443751460184,0.9078208105454935,-0.844914889405275,-0.5691097363447187,-0.8701053895931806,1.4847050397317596,-0.8133097672165683,0.020115344522785076,-0.4100968086588661,0.07813163882164603,0.27521600004486335,-0.027190428472695562,-0.9184693370518628,-0.12474277405985944,-0.6307665789203032,1.2927485026752645,-0.16044966132632602,0.4601990811855859,-0.32765433473013605,0.6271528291199621,-1.0103468290004873
reuters-topics/grain/article223.txt,12.645987353188378,0.6285559489634454,0.9999723272843243,-1.1758421536690258,3.5918950552185605,1.7266601508685337,0.32701689584833576,4.472373598351095,-2.6033813575008535,0.07610490080307644,-0.043428705115041086,-0.2040848001488529,1.4285485155159499,-1.0521276573014642,-2.3837008797204366,-1.316321327981504,0.5447266181448936,0.4981255581425029,-0.9684179516651679,0.5087503898788315,0.2950465109373574,1.094455177732923,0.42028927074877803,-1.3595560134072637,0.2344587917683761,1.0911522902264734,-2.991813661775997,-0.8162572613297882,-0.48050412139998705,0.8134441269544611,0.5017049197170163,-1.433917561506145,0.3097859206676635,0.4222133727624621,0.19944742202141966,-1.6381662778854778,0.7005598076028601,1.157611150685665,0.6561905432950722,1.6422734740023333,0.8774442932157632,-1.1682521484109893,0.3614863875642162,-0.4295393289849215,-0.3709556023434388,-0.004447588794887445,-0.316653531410262,1.0978959779515918,-0.3433628097297155,1.3045323414757506,-0.3618754987789568,-0.264203913652215,0.23822884907045877,0.056954950614223336,0.1683960634102939,-1.5334764736011408,0.5554737966298914,-0.46428549918149825,0.5193035715875424,-0.30634709795237003,0.16831515301265149,1.1731319510736307,-0.03329329722449178,-0.2533360677781212,-0.6364922012925646,-0.03200868120665638,0.5247336325799958,-0.81884792746048,1.3073502022356323,-0.5643471628574834,-0.3347695264156867,-0.7226134836201332,0.08327964355673334,-0.3010732551985782,0.2801642652064627,0.9760649076832336,-0.7390123440100219,-0.32514788819728213,-0.06982122039649073,0.23281018466887007,-0.16030634137664315,0.2435580711521737,0.9701548153396504,-0.8012539570365723,-0.3349117956370396,-0.31283322715760586,-0.8207133844201592,0.024604013715283094,0.38091199850966334,-0.15990310847812145,-0.5940185090075102,0.22415834632984438,-0.5053857564185859,-0.24725173685376498,-0.8466488525779702,0.15713135313837473,0.7335044679611274,-0.06556114914177703,0.7278065692404799,0.5024761278382348
reuters-topics/grain/article237.txt,0.18601944757750513,0.723898877049608,0.5397969613223502,-0.19334474347595507,0.03827382359572901,-0.06638593022150549,0.1120440218845018,0.021136142884411475,-0.23158395549798869,0.2611647476607368,-0.004293007990815574,0.41324680097629296,0.6851222074726497,0.30906615695440437,0.030565701144038483,0.5085084438465229,-0.17209495880705167,-0.10224455413875402,0.2229524704456627,-0.1123136813403136,-0.40723936297748625,-0.15205336738747036,-0.07507730741785237,-0.24177888537975029,0.05835619307377523,0.10346476869132323,-0.661681678711716,0.3819494216761883,0.38836974296970156,-0.19446136217790305,0.0890020930185127,-0.07456400747156744,-0.19702235268173662,-0.008986071753071211,0.158514354182199,0.16106524512948853,-0.13881869187839369,0.031837504827249195,0.12206792382161472,0.12369809716477995,-0.02304632372066495,-0.038641014052079384,0.1298708773635832,-0.1418965118623815,0.040813911350889985,0.2777403071554849,-0.08613318028121965,-0.39796664380497293,-0.10862377792925686,-0.015246619259787942,0.19582968189656907,-0.042709456015004185,-0.022852712072229695,-0.1802009943050518,0.05434263704544819,-0.24206665787018522,0.07564677202526357,-0.0497963845465712,0.12038076732096914,0.14947029800057568,0.18057269255818498,-0.20394673699239535,-0.27887786917486257,0.06603759349027705,0.341653952599456,-0.16454462850789614,0.2682734889129889,-0.3136865470828327,-0.15736741172592197,-0.09875999009035591,0.29976568476746374,-0.012919475722382896,-0.2219621078586745,0.18668554001597593,-0.3425327095625982,-0.0024834748415264807,-0.02491460364406367,-0.13347300811499102,-0.0570648885958966,-0.056568018089573936,0.06899468839220985,0.07037440663753959,0.264761839492817,0.16447373516910344,-0.20161256465979366,-0.26924645073959136,-0.059125468671620954,-0.1389194731945209,-0.14429821319756317,0.135158634239004,0.064076816536537,-0.0701657093929939,-0.18881724391126245,0.05959951290585333,0.10615037179695869,-0.18364424791905865,0.03932755741017418,0.20374807494233993,0.16719734887753449,0.2035408956266528
reuters-topics/grain/article551.txt,12.809113660959614,-1.1172742371668973,-0.3046253527588271,0.6208500707257986,-0.08916029673029191,-1.4485213065997953,-2.3543591933853945,1.761473073834491,1.4653942610654682,-2.81954441647307,-0.31076415921648276,-1.5850952942235752,1.4042728650271632,2.8605331271158985,0.5546818766022401,-0.8110090164833298,-2.11131648207874,0.9707372548146833,-1.8045869991561716,-0.35263972043372366,0.220525925695283,0.823445062126738,0.71143306601042,0.3982089390750945,0.21007256010019645,0.5381695333239148,-0.7440506946337726,0.6894988183360282,0.38116006527884483,3.362096943945939,0.2624686157467872,-0.12488974706074794,-0.2862091622927406,-1.5775958559808718,-1.0971003859268573,-0.11258402417438762,-1.90374917840361,1.1280875539532247,0.3338809008201423,-1.501599560094484,-1.9038883306977434,-1.470950616139344,2.3950359230821108,0.20956334736144613,0.32926320345124027,0.04734608049572218,0.8214839912217872,-1.3315612355542632,-1.3668000900289894,-0.21235499496262972,0.5865235593660245,1.3363800544389186,0.845986395438332,-0.5388639645830211,-0.28443346549803183,0.1310544613972137,-1.5305825353665847,1.0146864948040581,0.48737893796982096,0.49136015912990766,0.016084006554743402,1.1600622367658266,1.7091926429420508,0.3873556695033415,-0.7052175443694285,0.36459649877514705,-1.5277185963410047,-0.15027189871292224,1.0091503279838339,-0.7346969880614206,0.03230020858069651,0.7460219856901322,-1.2295199924511124,-0.6009867668377845,-0.9757697032014228,0.5981482606874018,-1.0314866214364118,0.03430661560028864,2.9208690174008183,-0.4666157590973664,-0.0708066446872112,0.13209909486879573,-2.617493532828688,-0.6816029031213778,-0.42089948631118096,1.0306583821602149,1.7566712270816642,-2.0141709543775352,0.6838879601891836,0.6648857768232722,0.6950776367808067,0.11953423916965913,-2.0724997744417055,0.22304926669375824,0.6412209835541314,0.6684871359979814,0.9587580430572391,1.8944855428672285,0.6123803599289962,0.28152733814469466
reuters-topics/grain/article009.txt,10.523698919150297,-0.5338445674144296,-0.5617014499109384,1.451757955868095,2.7161099870988457,2.6234814943840474,1.9689378902971395,-1.0643727080087777,-0.3435307519268146,-0.169527434568428,-0.8848260512730881,0.9903594761032007,0.8134816929806462,1.0625833928961168,-1.8182526498761187,-0.7342780420747461,-0.09610774645545979,0.684892224077215,-0.9943232447253688,-1.5728489243166848,-0.7577908090328923,-1.8789791398877131,0.5619765207534578,-0.6518497345775989,-0.5023599664374482,-0.9568087229113289,0.5331923607823681,0.5991602471478513,-0.04577913211891574,-0.9983372678157355,0.040749888553432784,-0.7693068120824806,-0.27806549911970835,0.5301868045880419,0.04423468117572716,-1.0647549406329904,0.6574150623939773,-0.943761041569884,0.12097888092860805,1.2437492153805385,-0.04489401593885996,-0.805537285293809,-0.443957989646662,0.13175931833720386,2.1996107805154064,0.6468491827028968,1.8621384742046982,-1.0570027355837976,0.7411122160596948,-0.18161512285275244,0.3062380158914494,-0.9312649147519665,0.4417134647889895,0.04088891796337743,-0.9471277530266706,1.2763127716782274,-0.05150305170931901,-0.229070448514989,0.9605379958349365,0.06102697460345879,0.5630538665943011,0.05428294083095877,-0.3847228097608198,0.5684515546676959,-0.51419030806221,-0.6376145064549236,-0.7914408593589617,0.7551789920160562,-0.17789989253112906,0.84168713241126,0.9703452042050856,0.9058033898161942,-0.17187714495661258,-0.8570247620776669,-0.8612304923387092,0.6636757575240613,-0.3545944049067323,-1.0850296997807733,-0.9076800067702564,-0.3484078826188942,0.6399949954001818,0.9803001391233817,1.3217775523740856,0.6322030414581687,0.2567835281021387,-0.1654911405011323,-0.6594696227497038,-0.9131468415825331,0.305988353381606,0.6072114846124717,-0.7772563694457952,-0.2249134241820819,-0.22960119755696745,-0.8441270395039769,0.884372925511701,-0.6264727815689423,-0.5387674030497075,0.573776404611486,0.5144606803776608,-0.5242030184013038
reuters-topics/grain/article021.txt,1.9826311968914128,2.665978942035467,0.41191989778041904,-0.4392925310846158,0.6266831605759566,0.3418615234100909,-0.930517472867687,-0.03288879713212931,0.5008766090232285,0.19332510749442028,0.21878405449890642,0.8608161499983337,0.5051762166294732,0.4125754907439526,0.9731321718532246,-0.5050816503274836,-0.11111242970311408,-0.412673671666343,0.5072661890556601,-1.1708206268678751,-0.09265850652715507,-0.914512757744239,0.6496015031876413,-1.720110940540926,0.5855402921521968,1.6140643336868665,0.14847869424697088,-1.2714932966117096,-0.3454697891052478,0.7697341601373807,1.57791678857457,0.45273471790936287,-0.7043137301937072,-0.2273781461764192,2.015602850361112,0.36596131463424986,0.8535749967983517,-0.521700457570984,0.18072672828107372,-0.286858838932662,0.01820774428498901,-0.7538897416780366,-0.25572858942670823,-0.12129732635336525,-0.19608227862245373,-0.3272460577425402,1.4527409953445969,0.005374128278795279,1.1884212017994549,0.3082364466807314,-0.14873662575695665,1.2084450374675717,0.07102674741051306,-1.0342427542797505,0.21454739806098147,-0.36772212096545814,-0.4946556964901939,0.3020153124288421,0.02581515888516546,0.8796783828209772,0.32367749231621884,-0.18154457743738767,-0.0947813427404822,0.9006983450446383,0.23584695699621178,0.21120345069762403,0.1025685681280614,0.05206188449717647,0.33242031916460457,0.01293668578527344,0.14295892373947017,0.5893392362375042,0.19290148429050266,0.06266031273871284,0.25422796115618035,-0.3138474323413713,-0.2358146903094085,-0.3413181521888592,0.42983622472604766,0.006671830831125948,-0.6192898591530858,-0.24151224776934258,0.1512771994920608,0.015814946174126873,-0.07382552692929684,0.09482586792385528,-0.30252601048998146,0.27181213715362074,-0.5088121550145831,-0.026593582813118452,0.16583925298310206,0.41053654402861767,0.40103454524260024,0.6827610853762447,-0.4187531578783435,-0.11903705183283397,0.5046706263378911,0.016140242090089563,0.6085290558169436,-0.29277306816073484
reuters-topics/grain/article035.txt,1.4521985015631147,2.3107392485316574,2.94379132424975,-1.8561907455158033,1.584932742655371,0.934808071200433,1.4690151234408932,3.1080060871746706,-2.3931156908982714,-1.1314095865648564,-0.8184798162241822,0.49523563851966645,-0.8858390131509546,-0.8796167160500331,0.5253689054077185,-0.3973425469362684,1.8079184751532906,-1.0047259857969404,-0.15693530779588724,-1.1766509760699542,-0.6813052839267857,0.21042503503601248,-0.44371812461851856,0.5306355184907358,-0.5246598590270255,-0.7480010358827843,-0.13560465019555465,0.08561855884627778,-0.2818073961219998,0.16194648995651165,-1.045491393392005,-0.04251433033932043,1.0090018835266399,0.029613589077094358,-0.2844378588756513,0.0033794083405642734,0.4607483594401439,-0.5623505898866612,-0.9603489378148153,0.2801944134261865,-0.83170071064903,-0.09808546916964647,0.02332256343657814,-0.6506140339040513,0.1859706202615598,0.6530531590418068,-0.8082371758286017,0.06873390158209879,-0.1666545264515715,-0.1450338564600496,0.15880988746954713,-0.1441444380118672,0.6937347196765424,-0.36834915300747817,0.06638672194550742,-0.20974814590233745,0.20024839484469378,-0.06212975758009301,0.19754228735761523,0.3264685993898628,-0.12548360862333732,-0.033952508235427364,0.041173067166198445,-0.3962773005677126,-0.18442956414706946,-0.12915435896247351,-0.1783309406483425,-0.27328730670517504,-0.19424791404464006,-0.6649513725269911,0.44289442326922107,-0.21301152967239342,-0.33137826067124093,0.5425439501314958,-0.2617412894237275,-0.2492643720535456,-0.11064835601937965,-0.28899205593750643,-0.21571002979619588,-0.0165930949627542,0.43842947831259893,-0.20316354870304432,0.6311999427668216,-0.3518732206174503,-0.18682120637266458,0.009899931352784604,0.3155522907887744,0.07474233221406312,-0.2674578658081407,0.28727097932774703,0.4322878605140925,0.006444081957893788,-0.5808083030832972,-0.2119833134828149,-0.20527130698038348,0.2877736402806167,0.23079237027940966,-0.1289411275926495,-0.16811953894704879,0.09121545471744222
reuters-topics/grain/article196.txt,0.7737715616194715,0.2615110746755456,0.21057089874514937,0.3040737223671649,0.9296500444647086,1.1596717128142355,2.5561248056691666,1.6993788644539456,-0.6703531038034197,0.4453475097624138,0.25020493968890867,0.33378732089404417,1.3439746174630378,-0.11850545628818834,-0.9755086608178241,-0.8383829706244996,-0.05916769229369242,0.14502670472802623,1.380195393454536,-0.3804181375045518,1.122052709796376,2.614550422103741,-0.24040946735408394,-1.1106295738420753,-0.4442755652274886,0.09790638034029772,-0.5040534978011648,-1.5751809901861054,-0.5176941954121086,0.6365142068855297,-1.7781979024922907,-0.4280511743869204,0.5550577893306119,0.24760196683176366,-0.7691510129620472,-0.19785413599095858,0.351781183072856,0.07422690623763775,-0.4825348312733699,-0.47887921814737994,-0.741352384303317,0.5666248401072487,-0.7787569913630459,-0.7884469158290128,0.42844717084952655,-0.12523870857041644,-0.6636424213160194,0.28436073242429577,0.413216733645277,-0.13185716973664366,0.6501979739573215,0.412059885989963,-0.827851298628906,-0.17671236219627595,0.12876472049171533,-0.857088570069427,-0.6777760057724775,-0.3354800194373034,0.22245394701104332,-0.24491211820861286,-0.22607163859954457,0.2836437824940848,-0.44153103849181147,0.21662511731091896,-0.11887864524912391,0.31295033978285214,-0.07151001112683428,-0.5819535436711422,0.2431436017371443,-0.03708645234270101,0.38600605297004975,-0.05803466032106135,-0.40100882886246614,0.5935027774221878,0.176021256917568,-0.45141145175544994,-0.5225286816734767,-0.11716500028552784,0.07884129830148888,-0.12555195017312723,-0.2565399658075477,-0.36189128742877524,0.36129379804327916,-0.13196252234904013,-0.4656238210300395,0.24371422461813796,-0.08514871659967915,-0.23378181588323996,-0.0018991130331919848,-0.04521959388375578,0.40002057694837745,-0.027863223156589696,-0.299558634867308,0.44980690315896926,0.1750281012284654,0.07909709013874755,0.28463686458782145,0.13209180856706157,-0.07201903018937349,0.20685908335169773
reuters-topics/grain/article182.txt,9.9031706812697,-0.896233875506775,0.3654658149484684,-0.9602343687683019,1.6288341347907933,-2.7932468343503176,-0.36025122076832666,-1.3655699311502283,2.3982286477318357,-2.157321606295484,0.6517356537792737,-0.6646018510584942,2.1907758747229744,-1.294335546628865,-1.2131597498424331,0.11115835880512506,-1.4779597398549476,-0.24958458475546014,0.7198699344402042,0.6377366397654807,1.018174629456654,0.32020733472483875,0.5157687708130244,-0.7104332293897614,0.6510412823263503,0.2301478676375937,0.294494191801638,0.5897331546666648,-1.4803696027887312,0.8534937765791634,0.28846343017750237,0.3622502479045012,0.34519818232972593,-0.7978650829856305,0.18962198203613656,0.4853620994170162,-0.03207145909299225,-0.7321052532788088,-0.9537648421148937,-0.5228390607750243,0.621694399153218,1.242701425995849,-0.360768377051306,0.20702588907462977,-0.16779133543179736,0.34049843085808845,0.7078785593936071,0.3246301669827229,0.037821348653454503,0.4725334538745003,0.04538644999059187,-0.8017761280506548,0.8255105641214162,0.44412485287167314,0.6394132931089237,-0.44377889803400933,0.3032738411132218,-0.5002469988942637,-0.23601448499057165,-0.5385938219498682,-0.483309988381861,0.4530077655699115,-0.023429837804116314,-0.43992346805241134,0.5108567178005646,0.13613777655043252,0.07278016677183256,-0.6925222545739598,-0.13479381784994426,-0.678977511099008,1.1055094738634352,1.6269428020544574,0.7420593382374225,-0.03246099009802245,-0.33173574882208695,0.2973603406537221,0.04974728328706681,-0.05109413624710343,0.03095697925472111,-0.46864579084461216,-0.9346365819872272,-0.4043977394874901,0.26480361934949653,-0.24912198877965042,0.08966396322439096,0.9311727413884253,0.22930219773385932,-0.40646677382324303,0.6613119324304305,-0.18443585096361034,0.3564505788410279,0.24614013657441328,0.3458378771467908,0.188390513024111,-0.1419830442972964,0.08990581570277102,-0.1614603660897791,-0.7868099023008737,-0.2590351275812378,0.4782319104256342
reuters-topics/grain/article169.txt,11.191994838058298,-0.024226186231164498,-0.6656602850009252,-0.18114730867494452,2.61492625437767,2.4492075298282945,-0.40474359729552445,-2.0134221563541175,2.9787215299971685,-1.0988288028475037,0.22529661525998793,0.20421368532434475,1.1251890312457662,-0.372336723763715,0.7253584539899058,0.5683677010760806,-0.3269231018853908,-0.4420052457899988,-0.37877858006968423,-1.0321118063161805,-1.6999956682073374,-2.93024308416973,-0.5429828687979485,-2.88599352935106,1.2673186376522747,-0.18713923845708846,2.2338879479784555,0.013265787217509161,-1.4976272237257553,-1.6560362469265457,-1.3522914130348702,-1.1125986916938209,-0.4881256715372689,-0.4498933902163788,0.8639361641862482,0.6390851138356158,1.185335379285927,-3.90592062650102,1.3734134406008063,-0.2829880255477496,1.4752914877379055,-0.4559126445244457,-0.015104046183329462,-2.915167476551947,-2.5243963706881147,-0.33352418686735574,-0.8085157522356696,0.7268703862506506,0.3528953603161919,0.027855747879013383,0.14624118320952958,-0.40307248587141503,1.611928477220311,0.06117415636691562,1.4466019584048808,-1.2204069988441102,0.2796717261743128,0.5723088015690799,-0.24187607833430858,1.2130313074930292,0.12643498860598473,-1.9159339237215196,0.15077316524168805,-0.7069796554280939,0.2474626972902956,-0.30730387002830223,0.48361838192300133,2.4063391020554885,-0.4774321571312651,0.6498298354792948,-0.1078086824222397,1.6000887346569632,0.7658946589307064,1.3011802152469003,-0.18129904150439508,-0.057256804877737,-0.6545439338545221,-0.18516372366455197,1.5069695028357497,0.7356023570349295,1.2123111997673486,-0.5000750303108933,-0.04274999233703866,0.11914069647847433,-0.13358602502714634,-0.3430145774225242,0.4042951252500957,-0.3964566630008669,0.7653830156890228,0.7092147334995692,-1.3789885541974258,0.4196771349753902,0.6076116150488502,0.6813658633170073,1.2544073577956556,-0.49239665846070424,0.4530962554668871,-0.9235306841860594,-0.20882659235682183,-1.296551249117416
reuters-topics/grain/article155.txt,9.205051783549175,-0.8661529517659516,-0.4234224019768877,2.981398377103684,0.685113652101765,3.3114742005607236,5.18338157521629,5.992938237019777,-1.8742527153833017,1.8494348961610407,-0.1552054506581118,-0.605198645635469,1.9509475599513337,0.36024680349080923,-0.9984219025688574,-0.8680162582858781,2.088396314573975,0.38111205814690674,-0.6297161828859076,0.1639092889979415,-0.33086951462998115,-1.9940814487358758,0.7750139343118895,-1.385410598442314,-1.141714071195158,-1.6949520253140538,1.4888194383307274,0.12384137496295979,-0.2976260107227384,-0.03522740278811484,0.43653496587849994,-0.09214148278163384,1.0714811613740052,-0.595979021420379,-0.2214989625701644,-0.43613913440576646,-0.0037187511938657066,0.4854235749864629,-0.05248686175648532,0.7635623576696949,0.040012207304562265,-0.41678126219007905,-0.5913596251424618,0.3568965409621628,1.0006537853802548,0.11376245909992168,0.8588782774891146,-1.2679163238104143,0.08877315754336357,0.24224638924074549,-0.3750396920473115,-0.98237758085746,0.14136330987233547,-0.11911815814166067,-0.47063504493354386,-0.13621995660722047,0.2344640285262834,-0.6856373649932779,0.40050776860005977,-0.01598252324581581,-0.7227985806361441,-0.07996411812589427,-0.08651314433034563,-0.28644787185456744,-0.5867694333553262,0.1895575089316511,0.5246082590791775,0.7932294435018893,-0.5151729356613016,-0.3734866767732264,-0.21094029953968846,0.12459319222437175,0.0859621841377171,-0.14763197067416803,-0.17113339234201397,0.6038579239432699,-1.2150107985150231,-0.17631511388079268,-0.13439005374756915,0.32868983265407975,-0.22684005168222096,0.5349162884241944,-0.43827492066629914,-0.007694131607124503,-0.10404918528709943,-0.9905352327813614,0.12634992836029227,0.6606398177137259,-1.2506772471953547,-0.28237575003741744,0.22816497422526863,-0.8054147350229033,-0.36602746075147247,-0.11836642539141105,0.34670256427625623,0.4623091806797227,-0.27993560527576716,0.2797621946199297,-0.06744889555015486,0.5410086320757441
reuters-topics/grain/article141.txt,21.612964270278944,-0.8079380341669291,2.6646968179132244,-6.564701704463996,7.429088312734263,3.7251838529239323,4.067245187152665,6.388065504011689,-3.6238161767212005,-9.336443545753811,-2.4968490040127462,-0.5988731572737362,-4.797467864929952,-0.5411103945054222,4.1634023276049,0.8051416160478799,1.9827126446597443,1.6734242692544892,-3.7796367746130795,1.0104969717804908,0.6946948940143608,2.312579617733351,-0.7617758746986981,-1.257330032217008,-0.01188581016387636,3.9880531925932576,-0.8174534028830237,-0.19733432315830954,-1.6347440489224274,4.466903794928286,3.265362795027265,-2.6546058915612885,0.22236087850674094,0.052887074010303764,-0.6134114192028274,1.5354910303618203,-1.4229093411897973,3.8576823022261877,3.5224867905184025,0.5480250686317032,1.9289871287992109,-1.8567655016795408,2.9571558360491768,1.132809118390589,-1.37655972399498,0.7344969128143611,0.7801821243952838,0.6146807775512733,0.23786375866380904,-1.4570025352793627,3.8836514460863145,-0.48019842625172054,-2.7177015898257326,-1.0974366193851195,1.225415154068671,0.018646611911034543,0.53473629426315,2.2511306741284822,-0.014693804847957159,-2.9367486409351966,0.534046499124314,-0.6974682132472173,-1.1260576855392452,-2.196043755626803,1.3138113850476232,0.1987182904168165,3.252361591372026,1.648842565732018,0.13344879354783562,0.7023355122245667,0.19015092649975998,-1.866171010108849,-1.596587383144649,-0.09941001103199472,0.14054041793987934,-0.7994389459502245,-0.8506257874980957,-0.3955092298118892,-1.1840629328741645,1.0902645054756375,0.6081205601653354,0.611634431293178,-0.3055408824637164,1.775837903458566,1.1123041766310797,-1.055106721565225,1.0029075505528253,-0.6420773711372981,-0.8013256783293058,-0.09515363501633939,1.2045382528234172,0.3422780653269383,-0.017765584721438122,0.5348957588847207,0.5902683164085257,-0.010739743682414623,-1.868070070797765,0.30015063368754247,-0.5637847123818285,-0.12025272763939418
reuters-topics/grain/article394.txt,11.003038901395797,-0.015563601739793022,1.6531388128554898,0.5429307949538846,3.6422854937391977,1.3832209832784415,1.2667370866794463,2.024277064184666,-2.8524083346725453,-2.4158322772448835,0.9779434937610967,-0.568902124834771,-2.396894234389901,-0.9597385374397862,-1.2166347395053088,-0.3285531541306102,1.6973515456006616,0.47905336959800615,-1.896346811010911,0.4970177436121798,-1.3764831630510508,0.2956478307330956,0.2925837948650116,0.7621679411636441,1.3234792256187449,2.2507213558874963,-1.0295759624654601,0.8563326762791676,-0.7811791772516388,2.185774633902023,1.1271151091058427,-0.6449997074343232,-0.3704069180496641,-0.8632976123740647,-0.35466844501124983,-0.14627828593246564,-0.6820317010162944,0.25079939474515156,7.085720282773284e-05,0.9729477479846371,1.2873567315236745,-0.2756097764496958,0.5523089178692896,-1.0358599954731738,0.0413992656184809,0.050940544498785,-0.17782286857671217,0.7434055723149916,1.1924209211671826,-1.357248997493589,1.3163176391010363,0.13153529414168522,-0.7998551073887322,-0.7424127747834685,-0.017914740924598726,0.1697700103612734,-1.5892171642921986,1.5058159784370457,-0.49102711767301715,0.2504229482730425,0.21662132057351424,0.9475291597748737,0.47246507491061007,-0.0461004646540018,-0.4812340482956953,-0.8270345375585381,-0.036317600918959116,0.135667346376833,0.28130925067801077,-0.012025301171216073,-1.1698465642134084,-0.9901397210621755,-0.10594194789290247,-0.6339173529072124,-0.619622479425083,-0.30434208053617084,0.17691866331997058,0.27017509428288333,0.12583473963745215,0.04810243868762681,-0.47448627988861636,-0.9719914323706565,0.05905810938990829,-0.27828632108057116,-0.19921986533439762,0.4627916316109739,-0.5325568472470271,-0.576731902885256,0.397870225556112,-1.4247271060441298,-0.43149547860162735,-0.5048545150530026,-0.12678651083567696,-0.4288857141126971,-0.5499882627658943,0.1370213290566773,-0.27264543889706877,-0.06689486293256607,-0.14372852642597655,0.16434948504860586
reuters-topics/grain/article380.txt,1.1518138684965427,0.2288351400017703,0.34740389444110914,-0.04704367514205597,0.2628320071091931,0.2488677405041438,1.2321756849666898,2.3955278456405265,-0.061360037044301895,-0.43735573241467,0.8552894803526215,-0.48660228144552703,1.3901038940213024,0.6846428755104328,-0.4121918918949888,-0.7743502116389033,0.620038090633543,0.49592969350216,-0.06764962451977964,-0.9926921472669951,0.053581118725889595,-0.09323267506549239,-0.3255655452257848,-0.7522438911841443,0.24182137119607988,-0.36333672012700047,0.27114763329890024,-0.15405013200057083,0.35254923522677667,-0.053647301366306126,-0.9186693738166513,-0.5770350290850715,0.9159166340052007,0.058293651155920514,0.3301759627403922,-0.06875484879558268,0.5630165123733287,-0.37908830306730407,-0.42814443806238145,-0.4638252941094781,0.002998784414541667,-0.015115766694152334,-0.6068095455683508,-0.6652182996945004,0.2183604814928783,0.014938469390080984,0.019756362741406307,-0.0679002320502212,0.47477829573777036,0.4518827013306484,-0.28795066854880574,0.16046911151248414,0.7146856642977819,-0.22011982159045257,0.016930041816848408,0.4871107366576225,0.548625299565408,-0.09108034161169515,-0.1579644882524515,-0.6122430256349128,0.1189263133608682,0.8261573114973656,0.47681601959577075,0.12045971606106534,-0.7083557838544431,0.25728564795091075,-0.4331715795704242,-0.1989894086601571,0.5271174798916184,-0.35261501894641234,-0.12004305057071692,-0.21717903352150641,-0.24180010016058084,0.3406663052246208,-0.2645018944656403,-0.1897339216267301,-0.0475884051577806,-0.8732821364138785,0.26500571458496136,-0.2012524905622837,-0.032070496568105185,-0.15679177986911683,0.09507073956046357,0.043942704199890326,-0.06273688611500639,0.29853648246998926,0.06236473626138903,0.09472275396829086,-0.041636921399397904,0.47810559618717735,0.042235026971150544,0.6153498811316419,-0.2399519585708787,-0.012501684306666731,0.023037585060335996,0.3543327195850054,-0.05431102559489156,0.10187978896929563,-0.00922803194114556,-0.25317933930949676
reuters-topics/grain/article419.txt,22.680318423166394,-2.606523579555722,-1.627169683164033,5.027488532162025,-3.80104673796731,6.662892405577463,3.432580196430154,8.435010965240513,-0.7668150262606171,-3.2053573342382857,0.10272081016229938,0.17882325490545167,2.8138712086654443,-1.950491782085623,0.06684404112674817,-0.14992333597086252,-1.5513380666434693,-0.3691691368497207,2.781598582307032,2.493231556937683,1.028534878544484,-0.9438058218513996,-0.3682510178057473,1.7785401260163518,-0.9070915953139778,-3.4181978349824425,-0.7964142903135089,2.3169430078591207,3.0446407577284775,1.3849624155859614,0.04940473255696829,3.1801818266891724,-0.5582383246543554,0.2245128200147189,2.663461945539782,1.1686768873410291,-0.8668813670010719,2.370439903067041,0.4560439810354352,-3.7563898349948452,1.391059469191208,-0.591700655079651,0.1582443475578437,-1.585505305436958,1.282839696879636,0.3970537201608066,0.30727750893753664,-0.24002078058141646,-1.115321673710113,3.850874729873676,-1.2237124696759274,-0.9711878672423648,0.4158019963322685,-0.6772024863419547,-1.3109508841919233,0.043981915988546956,-1.613221697961041,1.0673198550201286,0.16820032307185398,0.6078677047578447,-1.721873055315285,-0.7694008339865275,-1.7675956864806885,0.17609351234452325,1.3669683561194141,-1.026875478967579,-1.5517211615966986,-1.0457929782930837,-1.770844803631965,1.4426648176050778,-1.7664354124677972,0.5064716778178848,1.5644300183929853,-0.7826648187432621,0.42872886987076125,-0.38086092497235063,-0.41242076570976177,1.674820796599207,0.3698723247233919,0.691252545391811,-1.396415272259338,-2.1460149613973623,-0.43080877583291055,-1.78984144758912,0.7028515436402198,0.5698211129509844,1.5013847764278403,0.43484165475020015,-1.3930222881099128,-0.1758276955719236,1.816092980390287,1.4064305756879136,0.9177718833549601,-0.3255568292704136,-0.23808809662558142,-0.1451213267222758,0.6447983309107723,0.494312791612473,-1.410813785894825,-2.062326239843675
reuters-topics/grain/article431.txt,9.776815571076089,-0.7081932793638036,0.36438604059465446,-0.3411915366530766,3.364496375148757,0.9060694198345673,2.988681950592643,-0.38942233367457796,0.06651743803391907,1.5104262452341255,0.10441563815568446,1.1168074429098003,-0.7959628511050315,0.40015788208229836,-0.4792110557645649,-0.9305030225213994,1.8435336699891127,0.7465759988237597,-0.8103840110417303,-1.2777925865186244,-0.8260735328355825,0.05361977937298075,-0.9560532055203191,0.41145622008210275,-0.5483563263686356,-0.8442928462468438,1.7605471719347345,0.9719867082871388,0.5457920905409251,0.48167575404389606,0.31827367192494477,0.6764443214057492,-0.04763979959014237,1.4480080333829963,-0.35695576016887354,0.4131521624766494,-0.3709842965628923,-1.7015704448737141,0.2937019386907911,-0.3574733691701276,0.20627793393711572,0.40549479685591455,-0.2927304659121189,-0.7834789655330888,0.6596920747577196,0.013351472251940682,0.04006723084113567,-0.4522523603973405,0.10513478555692898,-0.14620831955401575,0.22628871116125093,0.004784976461243132,0.33961493624223527,-0.30955941333862286,-0.7303007543868886,-0.140673544500094,-0.006157869882654103,-0.39861523876685057,-0.4648492569675703,0.7657344216980461,0.2827114313653278,-0.38047760434447836,0.04077175904336994,-0.21059725595493634,0.3327179605761778,-0.16753284915306335,0.8314484539630351,-0.08004148757945267,-0.03382037058830782,-0.45312662399356896,0.2292032123278454,-0.1898265797560973,0.2919449561283256,0.6536431561519984,-0.36986678730942235,-0.09694499950019511,0.4516356923419462,-0.05355056806181557,0.5347318925994784,-0.38741547722202957,0.438525330520925,0.5640768088072449,0.0010004420715938277,-0.216176636687321,0.30362106748600065,0.795416190153607,0.2718712626715071,0.039556886063816306,0.17126642463229572,-0.0939458868211148,-0.8217202973599563,-0.15536815750516303,-0.5828088399937088,0.08526555991336116,0.2655414098533376,-0.3625342097162647,0.23202933055342426,0.09633180886862729,-0.29335901558387806,-0.12150699186314064
reuters-topics/grain/article357.txt,0.5191390989752873,-0.04403573705181427,-0.0008348829414350387,0.6083312764177061,0.05198463668636578,0.4476171986899561,1.1931395661021722,2.205256637553875,-0.30491940807565443,0.3269922570562741,0.181199614404467,-0.06526087041915732,0.5923400428898006,-0.2945086665867812,0.027111928487507563,-0.3051309570297363,0.7924905360126775,0.10171845937856186,0.692505407918322,-0.09128993741916888,0.1247011960840187,0.7733486810466665,0.27654654518019883,-0.5516347376860803,-0.15619189861600205,0.057223105474236965,-0.12985387567321965,-0.1106248565090448,0.034225990511536075,0.36377249221456465,-0.30392120949620316,-0.12055012718451409,0.28853358345707847,0.005697547836072793,0.07145931827104157,-0.5197763569404359,0.256775656761623,0.24437976395969005,-0.17478666468572296,-0.0330011513502741,-0.5625074604844116,0.17215799692267378,-0.6958538688962769,-0.4359771262789285,-0.12897737700709652,-0.2242445993546944,-0.8449267993738242,0.14570356818877817,-0.2187112900356863,-0.05081976026089027,-0.31792231244842706,0.7449772614196511,0.2564932966055162,-0.43364053876542835,-0.3167369425512615,-0.5090496582907322,0.3994560001852383,0.035392517250547935,-0.5110783237756772,-0.14838006962711622,-0.05672350351179162,0.2987420049713082,0.6091990393909236,0.17671861047474208,-0.7383747531602288,0.12170124568326704,-0.24699731940925537,-0.2367906744672014,-0.3013675883191846,0.18005839150415043,0.047781306224194096,0.4452672774592503,0.2175019486754545,0.20948315491757355,-0.3929594461728424,0.02343573477168156,-0.0008631987956198661,-0.2150909638612638,0.035199978178369035,-0.4603336937686948,-0.03071850424167803,0.037850538611846854,-0.4051347269886687,-0.3346678539109107,0.08981670471176663,-0.3288518052283591,-0.5986854918066048,-0.1194031350786979,-0.11172088132415157,0.2744840190286373,-0.09227357946882961,0.0668573164625307,0.3014170691072803,-0.13502424301941893,0.02621172299351973,-0.2769161625701614,-0.4821050661435879,-0.5140503883120656,-0.03953648133961634,0.16063393630944475
reuters-topics/grain/article343.txt,3.5782232652160237,-0.28367900336115576,-0.1293038572359163,0.16222765875623255,0.5169280317617064,1.4047780776770482,0.7609206650280717,-0.9692647600797865,0.9418416577004917,1.0757129454871441,1.5872171893180644,0.82690430936656,-0.6424507713283691,0.5345569644630201,-0.3155131150282136,-0.13463932423866587,-0.1597321209642904,-0.27062377392277587,-0.13411928128414818,-0.6675761057016019,-0.36635120497189055,0.13156471210057102,1.368595950072165,1.9771561256374095,0.07713472681922057,0.07101497971135458,0.3978032807262854,-0.2619130120597452,1.1019374781584672,-0.2782037146357196,1.0775206873006593,-1.1659303119019009,0.42846085492650604,0.1774156861966286,-0.2530566113246545,-1.186942323859259,-0.46776052951721725,0.3961564724723026,-0.41059055663319344,0.392697201031527,0.0072032644419122325,0.25614837220826,0.3401628763288368,0.1489314729267245,0.3075792410472563,-0.6647027563759583,0.19881375469819104,-0.9549296750544232,-0.4109616993839063,0.26335099548721014,0.3806291165074657,0.3569960060562786,0.08505988829275268,-0.8286611926795503,0.4709223951390537,0.4955229496416538,-0.17374127212732607,0.7980061189677468,0.04021360217926618,0.48777715848291053,0.48322167948783495,-0.08789861509396203,0.40306571867943475,0.5034759052413045,-0.9396548584527873,-0.27449045579649783,-0.5567990736193713,0.14243063657163332,0.9402308617168534,-0.07987246615344122,0.5973467883203756,0.21422421636729144,0.16222651921194323,-0.06410298218549895,0.24523469051555533,-0.30378402963848805,-0.37609216215792124,0.3757315621455368,0.09112187251898363,0.2895148950896794,0.12076452718227136,-0.5706294977813638,0.04188120477907853,0.7637116058726974,0.6571385644012568,-0.3448775197134417,0.45024453170704914,0.2756365884576712,-0.04643777302276715,-0.12292515405943327,-0.21264780030433547,-0.028563134733961666,0.04262372277571392,-0.07471691095581805,0.2787913303021332,0.04146468721886094,-0.12454651401124131,-0.05719552653077262,0.4153429895003487,0.19975082302161265
reuters-topics/grain/article425.txt,21.21051679084802,-2.6308571190476515,-1.2885283344889968,2.882367708109432,1.0459606304464621,2.1825870408225896,-1.3120559723607295,-0.13695613991812394,1.155639696087402,-2.7407769967803746,-0.05347822456069298,2.2153458137718367,-0.39227118169193786,0.17900582464112538,-0.35435671453055795,2.7754145421236425,-0.5128261635871797,-0.4972325945174621,0.5471187694370393,2.3466229734580586,0.3886878081079976,0.9029120364035311,-0.43160672698132513,0.36451504559855663,2.2325890651717066,1.6497878301192872,1.3081232579196123,-0.09691371013983376,-1.119084578658916,0.23717019239340975,0.7147399233640949,-0.1469996663432198,-0.9357613575150429,-1.0035223456873037,0.15435527479171746,1.1559464004488287,0.3870147833885816,0.9528642682997341,-0.5318767813530525,2.793744777377804,-0.4538139971988202,-0.8643246870227358,0.6577303885984468,0.6571863011679869,2.6885422880814245,0.5309620730234204,0.8328651267501517,-0.37109064739166236,1.3154811360625647,-0.2412101407313648,-0.0041223528234312625,-0.8296670135800004,1.510433143733921,0.41150785497574827,1.4395783844697392,1.406830943747357,-0.08471209239789185,2.4654656554758434,0.1426206338593435,-2.0176977730532193,-0.10578972943126337,1.5565983080771726,0.24167319954356117,0.35544327352884747,-0.1551885430159895,-0.11286499606103989,0.7459892438183713,1.08401404585767,0.5206162892769107,0.41237099576261405,-0.18154692850429238,1.0552357253463711,1.070063727400321,1.392182422541598,-0.30848859358051756,-1.495450126450974,0.86376867122865,-1.765442477562055,-0.5886914273156687,0.4964334433396346,-0.2061185722648663,-0.09514979153136074,-0.9876569237819172,0.555338860764499,0.9296755755960211,0.9573611630956945,-0.6761910382826017,1.22735543096383,0.4868233692246547,0.3451812675636495,-0.11771170501294545,-0.13467494490603546,-0.08661916791339404,0.5012168562704166,-0.808843883988649,0.8437567586313861,1.7056504144054339,-0.6875930506832905,0.43416820631811043,0.017261140618809224
reuters-topics/grain/article342.txt,2.622174013402527,-0.2821914618756217,0.0723291857316807,0.6442058017123778,1.1236209331686229,-0.12654715262481725,1.8602005106266282,-0.7034520733548304,-0.7216620473510147,-0.39020374909930977,0.06579709976221967,-0.12026673935228667,0.15566900324115643,0.20915229501444457,-0.0030142366775062425,0.7475331512132891,0.057997733783726614,0.23996675843491766,-0.1216467450723938,0.23268036899235864,0.46568410466138915,0.053772113729587755,0.837945849939878,0.13800338988906152,0.10725821818979857,0.10884960313789602,0.5262800749189429,0.17481505196568511,0.003077839472270885,-0.3345597837339201,0.6915638350654922,-0.19414636731748525,0.08869790884710756,-0.4211803873768812,0.14919889359583455,-0.594832587875109,0.05476939799878609,0.44543950530653414,-0.3492496449513919,-0.4366875181784138,-0.11496912527401006,-0.4472028851592026,0.34284074482968835,0.5978701459904067,0.1020499118506891,-0.2730577924319026,0.49058341981833004,-0.7478029343752485,0.0860870763248122,0.08080907855029736,-0.032434159592697645,0.23966962989762025,-0.21114291394128584,-0.5687570930981941,0.4236498384517689,0.5653522163562762,0.09685633648194718,0.7476968732174663,0.2664777456231436,-0.24152190471985438,0.526005714806125,0.12664303861253204,0.8607429397684828,0.000945735482753892,-0.4919081492041595,-0.11759609238372284,0.12303047332717928,0.26990603729633905,0.29034682861818967,0.11772028954544231,-0.08589496079625465,0.05215505122526314,-0.1860045999638664,-0.36573955000612013,-0.28915882181980423,0.02908583414234256,-0.32236809103987374,-0.1997603194625974,-0.0629167639995116,0.10623983163027857,0.1720542461938362,-0.28768224813392734,-0.3112755142999114,0.3671068479224615,0.15994879525508188,-0.13383287753259346,0.37778913877541537,0.19175560215414805,0.2611922410340725,0.197380072799845,-0.25666993667895727,0.05142607095626268,0.12932843350971554,-0.2995699552532508,-0.27108281811614193,0.14717814486478986,0.2567782906016208,0.020854830455099945,-0.3148226910717153,0.24234819486450457
reuters-topics/grain/article424.txt,40.29243296590025,0.7986411174167335,-4.005165426334577,1.1678747620582688,-5.704356572424499,11.68169269419157,-1.625198246284201,1.505202909916021,13.489696882256894,-11.205004929123541,-7.110850588749104,12.684411099715394,1.2215979411570912,8.594363611997583,9.098622172235057,-2.8394361975005964,-8.11643808653414,-2.582187388287437,7.811327470616426,-6.836994956620251,0.5045531134511488,-2.5588010685845384,-0.16054090477321137,-3.390467675581819,-2.0170222588387494,2.9377520101020758,-1.0588321192142942,-3.7438095846531456,-1.2915352235340756,-5.170502044529646,3.367940871172894,2.1120147398158076,-4.102633766225712,1.4868818385887774,1.5517058765067957,-1.1532539605594228,-0.28835886314248627,4.368721663652124,-2.8588621806074292,0.43385369118256184,-0.0029112007618224563,-1.7973857628271581,-2.9143271124761463,2.5508934852872045,2.422604549336979,-2.5436583740610126,-0.9349174639583249,3.5419653672480615,-2.171967086491538,0.24472273569675213,-2.3760148844000377,4.1903106502556335,-2.5786830479935476,4.868175606697882,-0.4602797951713089,0.538414368401404,0.9974991488968038,-1.881128142068035,-1.4325856896546072,-0.5920559409357286,-0.4503418649282358,1.682303074634199,0.7579311250537558,-3.3561911163527824,0.9983979686123278,1.1137839302488213,0.6239220290005021,-1.0336714062136396,0.8090200323497634,1.6442412694152662,0.20267331944402284,-0.32346219563711937,0.09633880104681944,-0.5893242673793847,2.4027882548448987,-1.7301073367063378,-0.8474367167683358,-0.28183952597692635,-2.038648277782004,0.2621487858013663,-3.41302569558155,0.8352218256145909,-1.2462890665110842,2.3825032713489036,-0.514126117615467,0.38582977089280374,0.4691752877990088,0.40047830226622,0.27870463977948934,0.6978170925355418,0.6058033588279441,-1.8053811107873645,1.1956743330990798,-1.8766350574313713,1.3087759402245915,1.48173018899581,1.6699013709971833,-0.9353379966253992,-1.1837097785027664,-1.81019714255835
reuters-topics/grain/article430.txt,10.128946127234519,1.9635007962895556,3.59236129798868,-5.824855288555087,5.352641473151592,0.055124749442486444,0.8998385575725384,-0.2830523097754769,-3.2572981196728312,-1.9149299505151,-1.556637416846678,-0.18926200365721668,-1.2769039333982473,-2.180268177471167,0.3087990631299847,0.623254131544321,-0.12352472494463794,-0.9027005672100046,-1.19638552515033,-0.5111348820461319,0.2577686587510061,0.8157874035330243,-0.9980537015231464,0.7258567795847939,-1.7894312344785037,1.323591328068174,-1.07864473161422,1.7775405060542486,0.1697347959747704,-0.4230764242055157,0.26652749214464183,1.519760829062965,0.06166491563268178,-0.677459007166301,0.5238845642983264,0.1587796309692432,-0.04259974775050501,0.15527541365165648,-0.39255747749161923,0.5273328193708194,0.09216690175143515,-0.154393444648128,1.0044899539186931,-0.22560206847094333,-0.287597211303914,0.13668302527857698,-0.4765343369053822,-0.0005133776748999073,-0.5686126876354735,0.09720835542987831,-0.6271852236723809,-0.4607885436383785,-0.013723149640034888,0.6507596223840535,0.2639585445028062,0.18819773796083455,0.9823752264941727,0.6341962809466282,-0.7400480110667553,0.07188445819556842,-0.6243658545953986,-0.025404632126301792,-0.6223005569494237,-0.26353659529059614,0.9321692010189315,0.5257690073980367,0.7315831791570091,-0.06906211086231893,-1.2412527363612902,-0.2017385538879838,0.04300775178300099,-0.3486743988934055,-0.3686121760016131,-0.6237958896992581,-0.5417305455478416,0.466530025144635,0.06640953514035654,0.4398053467175131,-1.4011899068834848,0.5063224034749829,-0.11608897014993524,0.29321644425136734,0.6400174860938697,-0.1710267291541248,0.14885419476746542,-1.3119027604952538,1.7051205081613787,0.8097745395034347,-0.9942618400290814,0.2944778404370766,0.5820186765502302,0.20288223417913068,-0.48946640944440173,-0.03784770411818381,-0.8441611583185433,-1.0232857833964293,0.7093682839360643,-1.109670930730057,-0.8312778093852479,-0.5013635093703679
reuters-topics/grain/article356.txt,10.546100052756332,0.9987730630202464,2.1477381531659834,-2.526897988385082,2.759610566315565,-0.5622709917659588,2.5237423991378534,3.136137568928802,-0.9178542233537118,-0.4029907042710721,1.0718323127214466,-0.1373947293327436,0.22617822711743368,1.8470069347061178,-2.102884222660101,-0.4346637659390469,-2.6073548063531096,1.857950639371757,1.278287055229285,1.633485701863793,-0.7636702038887391,-1.5337200021670143,0.054722613866148365,-0.6827292595628598,-0.7105627993026574,-1.4073282555404607,0.8304838219642622,0.813090242555199,-1.0580862609111361,-0.11019355705660086,-1.6300018569567312,0.836682396817113,-1.3290897967774267,-1.0728225289291093,-0.2986204912333667,-0.11378151316263747,0.5129880761793438,0.15728015911693757,-0.10766421508901501,-0.6960486270458802,-1.7291549555292902,-0.8042330014748843,-0.010785384203494236,-0.8273433145069777,-0.042425185444165514,0.9355514814752267,-0.4271838210402979,-0.9145985904748266,-0.5243353110204683,-0.47573087056522384,0.7951709395647298,0.4337662624772593,-0.4870995219235577,-0.8986183523733101,0.6238811222767019,-0.21882761595308778,0.29760870376650755,-0.5717602727783014,1.383505100323057,0.9318823757803365,0.9703747641713969,0.04465020092347494,-0.3574724998374483,-0.9634635633794832,0.44398756772612136,-0.8815651193578043,0.7655428313125838,-1.2617245932590662,-0.15571960160079296,-0.3000916069199613,0.17162665321035792,0.48273227186540346,-0.4962824141095067,0.6098104170999098,-1.1599828633644202,0.060804655869339884,0.005995315832663715,0.29909521361516056,-0.9157680344208302,-0.692343213932696,-0.11537620408759919,-0.5438425865732217,1.0486414414157397,-0.8652394573913852,-0.1901420020464311,-0.9557933990283873,-0.2919176306955148,-0.15022270043422556,-0.8912359510748191,-0.32274656613186453,0.013724552899634548,0.8248743423444087,-0.758056432234115,0.14491813530761954,-0.6038399056929826,-0.12704537857238674,-0.12801083712697017,-1.0717051649866804,-0.2859219072410244,0.6171914646756351
reuters-topics/grain/article418.txt,7.923137365471381,-0.6577562131342486,-0.22513216515251738,1.5290705826318374,3.2852505256059685,0.1490292561604265,6.552869514801782,-3.869287913892781,-1.1861905642206676,-1.5731377329143228,-1.404890629293636,0.08759970015951812,1.6550598002426946,0.8365082429024212,0.36046611458679545,0.4518958539686574,-1.3635262710099518,1.0127404262392252,-0.5533623107592948,0.3454086467607973,0.927886936381393,-0.31490131193473747,1.6452589237214226,1.1625324653360298,-0.5183012326269782,-0.2575749149450957,1.5965831402179689,0.30046566635822153,0.3414106569262786,-1.4390035973396038,-0.051215139702227734,-0.06628334773298421,0.6129840708517147,-0.7325356150712797,-0.27772049097095486,-1.1411371411308935,-0.177441685793601,0.7635836513687744,-1.1018272457905196,0.23438713919264734,-0.1806966613218034,-0.1945554128191963,0.6666039940999398,1.5616180985457504,0.4197315765638428,-0.6977169913039919,1.0575355281302514,-1.3661438299651403,0.023758213905708224,0.5250701158989055,0.1376822818783916,-0.00128743838042769,-0.06620457614989769,-1.355494143633337,1.0430246838833976,1.401010051473998,0.5703569828826682,1.0747067544673474,0.7990740337117441,-0.8342998912358087,0.7030751613875093,0.350929073473281,1.190448465513561,0.6911033090772879,-1.4734554754510745,-0.24455929767916768,-0.3896083077616279,1.1665044937427798,1.6860400495152474,0.09337063823314756,0.29112212724498776,0.18002591409180538,0.2285357063053219,-0.36948989008181166,-0.37755422381592285,0.330470620716072,-0.5954325491618566,-0.9994942926620719,-0.8190436552018512,0.2573781278183399,-0.24372592381478816,-1.1493117283129466,-0.4220798755060395,1.937871293980634,0.4336549400762375,-0.7765777663460495,0.31027195455321177,0.38951309484065927,0.1909928917943472,0.09747630394045347,-0.24227564224023826,0.2993261461603564,1.098239319645322,-0.8108237193171431,-0.33419801382600917,0.5095515488605106,0.7014990744739924,-0.5198558153206079,-0.21589183639799514,-0.17953605496926348
reuters-topics/grain/article381.txt,21.75533050509187,0.699141864956288,1.6297242488308386,-1.7012248118674882,2.531347834933794,-0.7224472581961116,-1.4816549526591265,-1.6295122157729134,3.0816829849734355,-0.7983615286972315,-2.69671425695544,2.695788527837176,4.976506873683742,2.792400277982692,-3.96024575635677,1.8030632322191564,3.798007307167324,-0.34472131206382356,1.1009194444724522,-1.158928954531503,2.65316501892459,1.0943580886025062,0.46687597474760484,-0.3273603465522294,0.5629814388984896,1.7148948305837453,-0.6426175849386874,1.2999512376181594,0.19998044247419172,0.5927034089407328,-2.761117780153876,-1.1549505853525144,-0.28549861335457594,1.0476763408665384,0.06493475206559014,0.4050702780928809,-0.2478892517647745,-2.167594165629894,0.9101028453918591,2.1261971383127154,1.616358019451942,-3.0985554816879395,1.429112331193899,1.536454895336346,0.10527367083134398,1.716719170269619,-0.06757097383133129,-0.8987958549367949,-0.6801262154202607,-1.293542660696998,-0.30534723922262247,1.416253236446236,1.8896698585691525,-0.5380103392005796,2.0369296060265527,-0.1620124007496234,0.5003913879183081,-3.035869443435893,-0.5446969727749152,-0.5655282022753937,-0.050124162918178394,-3.199097415220346,0.8901778114675237,0.1727598884591482,0.9669933528896404,-3.1662203053090816,1.7604143418268072,0.6336783135529008,-0.6794838779712297,0.9244681158948355,0.900305062268734,0.28697417369389655,1.2727953623875423,0.7989007363084658,-0.05998975021548252,-0.3273913028632642,-0.6285030080679236,-0.20713222308790527,0.4613391341400939,-1.7876344442507603,-1.1741488749705988,-2.3655418952767735,1.2629944662774952,0.7551659212827319,0.2522751940627154,1.549543522545864,-1.0403584146787166,0.526382846391874,0.3867002029202315,0.8945143271243324,-0.3021397303017467,0.5266801911778302,2.516133295585917,-1.9161393211548736,-0.771655941212474,2.6162343417223335,0.13363819119464426,-0.7527719896966397,-0.5944212972819464,-1.5195981317746452
reuters-topics/grain/article395.txt,34.94056770171972,-3.3184194016249147,-0.6778391900585903,4.315309615963773,6.4125448747883045,2.5457237522158054,4.873841928925273,8.87780925263612,-5.326580558318976,-3.559551936083604,3.215580897947713,1.9466960958592072,0.23325802054959924,-1.85287832322132,0.08970263329017128,-2.5717212856556873,3.3421220195848993,0.6438115452789466,-2.3213999724904775,3.3364929613939838,-1.137856781664653,0.8416073016249671,-1.5467753665378319,-2.483035782791894,0.08714084871390644,1.0704607743315042,-2.077071909777894,-1.8242014145673555,-2.1063538900645797,-0.01981094014808876,-0.4480039329050419,-2.046025320778856,2.721124131172601,1.3388634568114304,0.27898755953253807,-1.901443387659089,1.392914545713657,-0.3554277113905766,-0.7171730212048327,-1.4973276070480988,2.9375701849653684,-2.472079862233786,-2.5296153322368005,-0.02424359574226363,-3.547577509471579,-0.02654593089988012,-1.1212207349130587,2.1761029855382783,-2.163447492607593,-0.5292687914584631,-1.2993427504933808,-0.0562382713510476,1.7678251086530152,-0.08194635998568062,2.112509096846606,-2.428984845670079,0.889681721226493,-2.0794541612291364,-3.7186528471981237,-0.8907788407544481,1.2151076611174827,0.685130917756574,-1.3755753649562292,2.9166234029715454,-3.135091237044362,1.7846112833097822,1.7535273677973215,0.8544754184903777,1.1221320181179733,1.212989511910389,1.3464038602193211,-2.5390098701182424,0.46899361283652624,1.0715023153923566,-0.846641846288861,0.33117385026546586,-0.7286039801619891,-0.6948395319451869,-1.5561590810482144,0.9096061633313357,-0.1510469621460823,-0.4471307357244245,1.7242582272287752,-0.7382720947333541,-0.5635575286760287,0.05961373997642511,-2.0717513797254625,-0.46150364483511774,0.8434587768638997,-0.6397960676088558,-0.25314934366325154,-3.2323877877566214,-1.905012649501676,-2.822418077725359,0.06991687291019767,-0.6974397692521648,1.1627728102101926,-0.4491352853498108,-0.4742886462118488,0.24322394690300767
reuters-topics/grain/article140.txt,1.1289124857855244,0.21779149107058507,0.3849278558973313,0.013260481638952227,0.3937002742401183,0.23169964101991253,1.1951603268535795,2.4816337223808755,-0.07997588600526659,-0.4646213053609345,0.6785656074412757,-0.515450983132689,1.345029434096571,0.49625591835064714,-0.4582401563173693,-0.5530613760970585,0.4873444115993404,0.3199459675828324,0.04670077973153178,-1.0471197646903883,-0.08176537873281471,-0.09526122088340844,-0.29998083064409264,-0.6179515737281008,0.21742555964240196,-0.518462095080121,0.3583197312409991,-0.12086956714881011,0.11555942942922318,0.09787311334186241,-0.8175370760336199,-0.5216533068745961,0.7809393825644734,0.12319602711361483,0.19920283671192354,-0.24902612184808737,0.6594370159538359,-0.2828667157710308,-0.5470016731974369,-0.35431972216738905,-0.0605659157196904,-0.08549866745818081,-0.6109713527710106,-0.4025240514580383,0.18960862000685644,-0.18573230128312535,0.0701200366156416,0.028513580341310917,0.4455172642101258,0.42064618813185983,-0.3596842770583365,0.2018265448261284,0.688938595451891,-0.07577820314679622,-0.1322882811883331,0.2873318243113574,0.20976644172813513,-0.13957559506873693,-0.08579313816228348,-0.47395248377846555,0.016006744663629308,0.6163613823830969,0.4191869329227968,0.08793641437938246,-0.5972835199629588,0.11690425346367475,-0.3317671401731663,-0.27012301375047815,0.4988506533515532,-0.39960388470170344,-0.03394943876155059,-0.03235116802975338,-0.10392724125436377,0.41760032975436784,-0.24586638348720632,-0.13746010598594158,-0.08252066969397837,-0.7773991421665237,0.40164160265461957,-0.22830254465301206,-0.1412235965003892,-0.020766370727097683,0.004173396158761236,0.14291514073493214,-0.09989267815543616,0.13606590972705762,-0.030825503776923332,-0.03677836370172202,0.005870495823717225,0.29305399201569277,-0.04109475630466752,0.4533674711467356,-0.10351500176175406,0.06749662579667931,0.20491624054991048,0.1565248667385959,0.09990616321369725,0.22827624110462635,0.08181310946077065,-0.1263220730961568
reuters-topics/grain/article154.txt,63.078474110420444,-5.092179496244482,-0.5879597347582157,1.1104994127276455,-0.04229047732456485,0.8881894966136934,-8.885155964013713,0.4431923133583475,13.298197614871262,0.7814017486824778,7.761405589401392,-1.1796087876285677,-0.6887282297735217,6.53024838088272,-8.906010730082427,-0.7265664330653427,-1.7531724148805052,-5.918954859277171,-11.806605809608376,5.910437564590278,-13.916858665260314,7.924082243028156,3.627350170225427,7.57770048829413,-7.966092004977733,15.036797417857517,7.900511342891709,-7.983110983090347,3.7865507756943573,-4.998400551545709,-4.173950314473259,4.206606956470062,9.716169441093914,3.4526013808487397,4.165306768964718,-2.1061700272125568,-4.688288979093422,0.950783305110757,2.3085750950116024,0.4541622992519161,-0.7658576918918119,0.3613455363472475,-0.11418080189935162,0.32770895438792297,-2.3673490148421017,2.4301852583129446,0.14621616222303294,-3.176428549816849,-0.17882601174803348,-0.43894449936634944,-1.8647413977887985,-0.35375516630239046,-1.1224331856066427,1.88872194034812,-2.463656761479398,0.21562154580418527,-0.31060155688039814,-1.4913277788175612,2.6462120105836444,-0.0917912732443967,-0.38960406895596217,-0.6194493577869404,1.03100984784557,-0.8419900219640423,-0.44325494756230877,-0.7411603241071791,0.364641359646631,0.1475990594098725,-0.03440362655153231,0.46353004826716854,0.3974870110229696,-0.12740231567015517,0.6826795212605146,1.465176239230731,0.7086698224343967,0.37738271748946206,-1.3925708699409414,-2.6764610628772676,0.03933340771777058,-0.5917860575978118,1.4365026669398815,0.6526997878737796,-0.7865102479101558,-2.0559301218286543,-0.41498952933749117,0.5967696674263947,-1.0021715929902726,-0.5633224276401385,-2.0918785992665088,0.7932064021460067,-0.007761295232284985,0.251888842480877,0.7621538522883011,0.4228543552110541,0.8664559807417224,0.058524896863620654,0.801188262120445,-0.47082142969529045,-1.3692384132656534,-0.8569246961701937
reuters-topics/grain/article168.txt,15.590421882540827,1.1953640687487126,2.029044579859894,-3.219442702703388,10.428219655387243,3.4956176249885087,6.806833903314681,-4.867033496100097,-0.02965898038139896,2.8688102912389515,7.023564217045708,-2.0722262447459903,-2.647181629707221,0.43421081949487383,0.647590737604156,-2.863047576583168,-4.185115338031808,-0.11685022244435346,0.1374387685351798,-0.9948140904838413,-1.9598786110307493,0.21868790751244255,-6.342441556538526,-0.9285352958270279,-0.8801959470076919,0.8722255271398102,-3.6984367074949582,0.5384487397580934,0.7230677896819273,0.9471835577024836,-2.7699789133651067,0.30195652151764496,-0.961409525380624,1.1913359051428787,1.3975427315412932,0.8858463012297505,1.1828087049766416,-1.7044574979651848,-1.1470825603513017,0.5143637719211094,1.1346919393465,0.6520905267420436,4.0021218934454055,0.9618896209629282,0.2593728776398298,-1.6868261536772433,-3.3940551691358407,-0.6795640395368532,0.8298914861146457,-0.09494978619896965,-1.7361627091646845,1.289080579494516,-1.1127736409884688,-0.06614558480171503,1.3741407731252682,-0.15232964096340446,0.14125807479210964,-0.7173719790404475,-1.038104973154218,1.4256710375236166,-0.18061962076364052,0.6593333725658884,0.12361584236512693,-1.5671915444124855,0.9374664365947348,-0.732283723359004,-1.552869002105426,-1.386281798519931,0.3491287625477777,0.2543936428730174,-1.1104144771668463,1.0071747996590292,1.3358627580653972,-1.9506020546050733,-0.8443553787610044,0.35854652562221645,0.09258430299276793,-0.029916677924979696,-0.8954410098430382,2.821891509760774,0.05444133427049504,0.29454873256832664,-1.112756800412464,-0.9761088755648138,0.6508536975613801,1.1420569965001401,0.28748050259642755,1.7271753095787108,0.3180153069977076,-1.27190910920892,-1.7552311698930245,0.17896498268722238,-0.034148020612606335,-1.0460585610694975,0.6260898339993882,-0.5439413818148839,-0.5389150377933766,-0.12075590037165938,1.1656801720140357,0.3582196218936604
reuters-topics/grain/article183.txt,109.58307215446916,-11.986555850988927,-6.30909854934059,11.976909913058728,1.8227817290403492,8.932281230863941,1.62501862345602,-5.324139631186482,18.93972312638809,-1.4688138989133297,6.412802093069079,-3.843373856201983,11.264506903237196,3.1387922503869117,17.638438007397255,-9.075330754792676,9.97771997738002,-8.804173587814944,-0.3255904942134037,4.771122553193556,-7.607396057946873,1.0738412960344548,0.382929324252659,20.046443593113736,9.326068708889531,-13.283897167814755,-9.35193978751209,1.4082972364258701,-4.950999516275512,3.6234570092100804,-7.359422189216608,13.774074089449886,-0.8033502954106574,-0.011356432998641048,-5.6439069015353525,-5.412449966448919,11.255544383653108,-4.306344103283574,15.419486163918828,5.73538457860356,7.0313028503952735,-2.6981690773437856,-7.690248340440344,7.713100742625924,1.226981327025941,0.1706568819481718,5.445152009302596,0.9416009075485071,4.889523069753935,-1.4861178161166182,-1.5214804820843977,3.762961614958405,-6.449660871960596,2.7174987324276727,4.269730329724633,-4.109106275142663,0.33854873984709816,2.6454087627869893,0.7244084487979449,-1.5049962781035833,-6.292685509770166,2.177970121456818,-0.8660936758843966,3.149608696707413,1.347864865013143,1.549077010923648,1.4807564333967138,-2.1715718210226984,-2.1773296918931,-0.7103265397526859,1.5114043402486916,1.0785102554076382,-4.630292738784345,2.161744460266511,-3.2445502357681644,0.7317475978006752,1.596191809365805,1.8297648286634731,-0.04901639636423212,-1.7589993155645425,3.1848607600035175,-0.6612079880256998,0.6650965308455211,0.646053989238177,-0.1147380961607345,-1.7088349234035376,-0.2741954792217928,-1.0786492657929514,-1.5250015940807338,-0.75652289365232,-0.3814605881008383,2.030001953038319,-0.3982335118859935,0.8399509488485395,0.13782254306231026,0.9594146840605926,-0.7752848605614684,-0.5271978496489028,-0.397978975647647,-0.3183376700233348
reuters-topics/grain/article197.txt,0.9061311661198959,1.1411045122408527,0.795275749939276,0.5703402722905749,1.0019042308203578,1.4068956599038167,3.1283580042476595,0.5552158886070127,-0.6843630139290957,0.8867910120496724,0.6577949534288812,-0.4333636682150591,0.9108405846262306,0.41542212437862025,-0.8456599356556943,-1.3388058733692305,-1.6612819582169527,-0.1095534398347194,0.2510508040446538,-0.051273857315183385,-0.046621581140888366,0.9654232376449999,-1.3522587514236508,-0.736459319086244,0.08652122044323372,-0.8639094605503448,1.1567956903410956,-0.8289004669722194,-0.9481415208641112,0.3424994944537858,-1.1059051230435162,0.2022080880129382,0.35887511120435733,-0.8154969913550266,-1.096379901557376,0.9359346911179826,-0.9017894826422964,-0.6631281700666233,-0.4850034915745888,-0.8052738509515789,-0.07377265675361404,1.1787598438190134,-0.34476572630991154,-0.8386201705338028,0.2704753635075265,-0.5246980300482252,-0.25709600207070227,-0.146161156531157,0.818792172289913,-0.1818384409990327,0.9682209447731818,0.7336917653314092,-0.8798892502415961,-0.2751463131770565,-0.22565486375557992,-0.7177521352885153,-0.7349905514073678,-0.6259151610230927,0.5266719085853789,-0.23639199625556767,-0.9978543359169403,0.16512910275106527,-0.27230416006237124,-0.5154529984911659,0.20776227404755077,0.1848095969448387,0.11131093398992806,0.3244250916513099,0.11533014030447986,0.08837941771198245,0.25736145791211484,0.09434491076825802,0.08321455855190205,1.1062669769026752,0.48474480863469455,-0.16862580035381636,-0.016200229274655538,0.1923052260865443,-0.253765967821515,-0.22083069767309502,-0.22668729621476907,-0.168542668876288,0.23435168981548207,-0.36400814421657135,-0.48410906926580033,-0.09980518849411615,-0.4903991626355492,-0.07278061780408655,-0.047151186903483765,-0.11974524505403539,0.4879162998499076,-0.09010404634305093,-0.03716945459104617,0.31193244757911265,0.4793894726510618,0.1621899339455793,-0.009928577101727171,-0.09921779798830194,-0.09901128670365941,-0.05090635563630169
reuters-topics/grain/article034.txt,1.228260974523012,0.47021322558476614,1.168605707526341,-2.4833936734900517,1.8413804081398002,-0.22723580234399393,0.7268944918483414,1.0297680224110677,-0.6321605306174607,-2.2842132978642566,0.370804804725198,-0.48295560613038735,-1.0608789323848045,1.0601312727731598,-0.1883564317735845,0.948737786058177,0.38580050512554015,0.21672858877604548,-0.22730570958069554,0.13235263582490742,0.2638879958335754,0.45426775143590037,-0.12654486254257552,-0.13434733312542024,0.34002820771082715,0.6209358473698218,-0.22485641120297786,-0.1237407143009944,-0.7421554366300004,0.8384947167004704,0.6032965960609598,-0.7913295144005907,0.0578832448260198,0.6409360494147823,-0.05527604853115375,0.2963889672638599,0.014252307925273893,0.7116479600826608,0.376766993654141,0.10361999432951108,0.8074156949220869,-0.09264252507164279,0.5226761301033186,0.3763208869190289,-0.03032167062483797,0.23841588958972273,-0.023842792625353566,0.22164720554649806,0.33808443180660597,-0.1637604781342334,0.6181557686342017,0.2381272876077474,-0.29800071421511254,0.2652424237359727,0.8652706753767971,-0.19790283164447248,-0.3709197562214169,0.4165173899487664,-0.18005555989185468,-0.21477216969236898,-0.13315195537523172,-0.22028979749385796,0.34892513987161644,-0.6970179160184201,0.329054362125325,-0.2319707029479809,0.001963832211482075,-0.10159602162134544,0.15856813503448788,0.4463340400759406,-0.48760966180000276,0.1175077004332302,0.040955961258347905,-0.32242640300606185,0.20944290678839225,-0.17826538815988852,-0.5690853661349317,-0.20653797849937247,0.13795609409856768,-0.12083272574754687,-0.1902592056196241,-0.292497769888431,-0.20899693935076216,-0.38852728985350865,0.3925129484620596,-0.5907552048995879,-0.08299338680115859,-0.11250053619445806,-0.54915986266286,-0.05113592246142353,-0.01740100140075317,0.37452361549555857,-0.589738104708343,0.09798209873332395,0.18264920902993595,0.054797432452087895,-0.3505132801981145,-0.16182745633381893,0.009218470733581981,-0.024545418851793333
reuters-topics/grain/article020.txt,2.6968405615173108,-0.08678378142396098,0.2926163807424116,0.2109154805501291,1.4332831843530107,0.7384948153177381,3.1051688861585736,0.9257128963465107,-0.03790158884885314,-0.4273860203154074,1.8181647860909276,-0.5171118195842757,0.6285414805894611,-0.34317383059836265,-0.36762916590666256,-0.4011491947400726,0.03657948400507938,0.8358143447999385,-0.6974856849779889,-0.9589233455233106,-0.6868090029186179,-1.004298059664351,-0.02803410105115686,0.24550399418502,-0.39174961266259833,0.07786556969612501,0.260442057411696,0.3696373492206485,0.5452969519692831,-0.1370662414328491,0.022163130388034625,0.0067388705283640835,0.053822799826587976,0.037786139736607105,0.18979591331706877,-0.6022003913831876,0.08298870518061964,0.1174588283931438,-0.16469848833867468,-0.25912000846782945,-0.13985954219770255,-0.7327984739843129,-0.27235188377440894,0.16697699800051352,-0.13309001388153385,0.026955381489994254,0.04241258003078817,-0.12443876269714699,0.19181190561259118,0.4401477560663476,-0.21584658419679253,-0.028951842599284402,0.2880976695084496,0.4243964156565281,-0.2789957281910286,0.5383211070866721,-0.17509035425357622,-0.0017669850809984068,-0.08630055340752564,-0.07107353672256138,-0.40585088072014236,-0.10182581110850805,0.5668873544387737,-0.07492420832807951,-0.04005388494400294,-0.17347496973737497,-0.18996957087323568,0.3714956522060784,-0.6595801436681719,-0.03153777173145947,-0.2182577638067858,-0.2517046380360289,-0.17445818865462306,-0.057832519624062245,0.061729505740238055,0.032288928813470515,-0.14332235675436597,0.029822785870877326,-0.24449144911171594,0.2570221269172465,-0.10026175294286047,-0.05279360154994882,-0.3463771634914238,-0.02186801354541608,-0.17889891467148253,0.14227486580396353,-0.08154677450724485,0.5842255693657468,-0.4734027860962,-0.14733379294338478,-0.2095281815435804,0.06412062616371964,-0.053008133252396165,0.2921785288547681,0.29055346285480316,-0.3550034672993504,-0.09354457193925556,0.2688267300999013,0.2096519118901455,0.473610950333561
reuters-topics/grain/article008.txt,7.906110658338788,-0.3323791158332176,-0.03755948602782121,0.11371994925159164,2.400393912380716,2.8146463752343895,4.4637918424918945,-3.6762296002952892,0.8124975018649033,-0.8938590669843581,-0.34840046942150404,0.11193073000519219,1.5340850884928101,-0.39456805855082316,0.446539002489077,-0.49399912946596525,-2.2842503570435,0.4047313699299259,-0.3401611575787716,-0.6366129821455463,-0.25436137471979536,-0.6835311381219487,0.8488104697335913,0.1161163379045832,-0.7061724909770732,-0.15506339631380003,0.032828196397818775,0.7299465856001248,0.36390931099062906,-0.4359473737986087,-0.5401984480501346,-0.9148061998533085,0.4861295253499478,-0.8009549206977056,-1.2295093882901647,0.29758836221102425,-0.18645456666943572,-0.5392343849101756,-1.0156736955322387,0.8790423009283049,-0.013539384220095858,-0.24251915881013317,0.5793972451008955,1.087174565775585,-1.3083841928162476,0.188977993869422,0.052953104710105434,-1.316833454328828,0.16747570806090334,0.8779588949949715,-0.09359566592017217,-0.5228228824764675,0.7731090780448278,-0.183593854719062,-0.5476803335448804,0.32710229769325755,-0.6025568748669903,0.5196353566453713,-0.05831810250379131,0.13664934821918237,-0.6618571286838298,2.095906494751556,-1.0222793826113434,0.15516092983781765,-0.8519825638101772,-0.46337976073101905,-1.5246999343610126,-0.42982986264194,0.006284491770584315,-0.38318207363991486,0.40229695061407883,-0.6464710845314418,-0.05658871837232475,-0.5396287417890833,-0.35955013262380575,0.6807571463772497,-0.5976962645671196,-1.1032590050922089,-0.4776181289572918,-0.22724522783839762,0.2583465860610722,0.3284050355522923,-0.11669214392966545,-0.35502466990792164,-0.2770332001664787,0.19647447595909237,-1.1127384324712424,0.18323165385901555,0.8542703606051614,-0.24562763318018552,0.2033387964333376,-0.24199364232038664,-0.06600037020249465,-0.03544662230735318,-0.21221605886064124,0.23317510334116445,-0.3180634099253426,0.26291157681107497,-0.0990360742593555,0.06449277355136045
reuters-topics/grain/article236.txt,9.005913854013217,-1.3663645314298556,-0.6539556386050841,3.1761654344499486,2.9172993535110887,-0.8302056288126329,-0.38301839475346394,-0.6915201146280612,-1.5379223196114185,0.012283851188157262,-0.26011885011861524,0.7111758006069416,-0.7284871122571349,-0.4282531575274203,-0.21525358081922047,1.0438205426818838,1.2732862782454688,0.17396278753679073,-0.2295785225784333,1.3403654056882959,-0.2159936531346812,0.49776221117113734,0.7670127881716813,-1.2501073153273983,0.9672743893353516,0.9081425181060145,0.6104924775766725,0.9329472257406018,-1.309809245399187,0.6320200533996814,2.2227211897038024,-0.497046533313951,0.5781429574723943,-0.8622845377104539,0.9611483766252125,0.7383143063394528,-0.1990714198486827,0.539319195008795,0.4285126347684378,-0.06350327071863955,-0.47205198572828766,-0.13337438970579885,0.2043746485809323,-0.5362290112104183,1.752643833200847,0.7956064993591275,0.8033103505291839,-0.4427329910281831,0.7799648353589137,-1.3289423036720596,0.46532198914274275,0.9948703237623291,-0.37208202521398975,0.02197481965323855,-0.047812238788654905,-0.01398010716978745,-0.9256028578323867,1.1856402804610182,0.16633977716871634,0.12670698355073273,0.30856592128704213,-0.30932342609096086,0.563964212697078,0.07225922149054524,-0.14258503546433446,-0.3952930448636054,-0.10012859328801768,0.04409711208684583,0.04611012732821845,-0.2315954779495861,-0.541173276150443,-0.23659004297315073,-1.1642965811498693,0.0398574990324057,-0.02674765568153671,0.22834820885433751,-0.135315035823584,-0.4143799314542951,-0.1056916534767179,0.112491907520199,0.377013403739789,0.4725712862934206,0.3690669767806729,-0.09466882214425022,0.35009108543668804,0.33931018622561904,-0.5746595789460258,-0.2131420868683525,-0.5783866663294158,0.3975186282966003,-0.14604434005011482,-0.29870212392824713,0.06326023509179103,0.4278394243790688,-0.2020332192191086,0.46592297659509363,0.004665037934249876,0.8729218009052649,-0.22279566552621943,0.27483036798249133
reuters-topics/grain/article550.txt,11.470122203884237,-0.34072590272712716,0.36495568365070963,-0.7275014306850481,2.127324152648888,-2.726768242362049,0.7101711333875067,-0.09622672644893177,1.155901425181287,-3.1300675699031504,0.037479292638728665,0.9154415331109538,-1.7855046878740586,-0.5577596899132261,3.1237780999773035,-0.7921025905580479,0.3102942549041083,-1.862221948788642,-1.6395367109253425,0.473614558766955,-0.1006598997391197,0.631889363794735,-0.18757190407505792,0.08342271394744592,-0.8157576813838738,0.9903845305084551,-0.3865151930798581,0.5523604150276537,-0.8084268358589158,0.2167639218902872,1.5408268759570218,-1.0416225453909262,0.9417282251404836,-1.0801036738231935,-0.20372134809007436,0.9935734070736061,-0.7315302481323284,0.15198418288237173,0.701198246160627,-1.1370328406867227,-0.8695284145442365,-0.1861549278730935,-0.6235097963951538,-0.31930107712553596,0.15486947639769014,0.5304205339631778,0.19977592147408912,-0.515392848542291,-0.36697918403442625,-0.40783255832045334,0.12944498400385634,-0.32912199058890473,0.17462461246213296,1.1821335605391783,0.3030334817827262,0.5805759347638123,-0.5303273462878416,-0.7274160064555554,-0.7547597169178099,0.38760269482874793,-0.6321513360822104,0.4158856721449521,-0.6537034795835164,-0.5181120007213417,0.6441189903816963,0.6593020645467388,-0.7537893101868113,-1.2693833370876277,-0.7355635291544935,-0.26644087710036446,1.7110757973285857,0.04069787962766787,0.2948445782572118,-0.45664179267174315,-1.16853823198013,0.6257165224414386,-0.014591460566179808,0.5903489903416134,0.27623940703751576,-0.8078105379918724,-0.23071119940108692,-0.6239239633982001,1.1878899460989538,-0.3735830558624918,0.3000553406424914,0.09033387852171065,-0.2666411197248631,-1.1040962507310348,1.0949637147467504,-0.9418520197406076,-0.12997259623363305,-0.2984889948736033,1.1414249046714229,0.2377286255699797,-0.13177747191810027,0.015470893091064211,0.4225668154125259,0.027878973588473327,-0.5838248740740252,-0.10588949757039985
reuters-topics/grain/article544.txt,1.120609561331705,0.1805698574500221,0.363735722791276,0.02824253333946365,0.4323254744320353,0.23123053153974968,1.187344676840482,2.508520776441817,0.005851481248222489,-0.46985481349559094,0.6864113777747183,-0.5657225297936949,1.2176090347598425,0.38379874410424253,-0.49122498048678676,-0.6194965193444204,0.409164602763405,0.3776785207920387,0.1598753727393008,-0.8794241443200669,-0.12177193380638696,-0.0169017110977286,-0.2775199810309167,-0.6300598205098692,0.30703652101935835,-0.5568656287515914,0.3834098033889006,-0.13495511091046045,0.13583183170600394,0.06316770878222906,-0.8692452062644439,-0.5046257708870568,0.7923604941920904,0.08619134567650356,-0.06677407382120559,-0.36647291862543996,0.5148054498234075,-0.23411132183831218,-0.7305984819808624,-0.3563947879990136,-0.2045036504294151,-0.3117659877303589,-0.5626809463679904,-0.3955526953347829,0.21075190673080735,-0.12074835912229748,0.024290067865862523,0.09952857505928124,0.5223481546356828,0.3374303731312915,-0.3431584936943396,0.4161903825069867,0.6470773756434309,-0.15949287181219796,-0.1810821733475366,0.3316814771721687,-0.03531501094788789,-0.10867270627334139,-0.21659250630960897,-0.26004328397350196,-0.04626866427739384,0.36302516030108734,0.3069821942696962,0.0748744068212496,-0.5053699384694913,0.1258881143732811,-0.13582933271194303,-0.2813096146773779,0.5445627780320339,-0.2616617572221429,0.12315869231191579,-0.021929506902098106,-0.12101867420290179,0.3231942170706134,-0.16206595519667064,0.03379182640811811,-0.04535012812454187,-0.7597415061023536,0.31274002613775265,-0.25596102014821204,-0.15559319582865763,0.01077998962333771,0.005027337060861826,0.036864639050883344,-0.1008730185032568,0.3179929190023743,0.02856419796073006,0.08415945014925151,0.16195498839358036,0.33616525000939235,-0.12462876053814885,0.49985517398966633,0.04672151733754827,-0.015260929627968368,0.17475191526061132,0.19837037690401102,-0.016003497576116712,0.08598011649921646,-0.005562278458943044,-0.3371912358161084
reuters-topics/grain/article222.txt,20.464227143532156,-2.634573653714735,-1.4419811055542269,4.537775464283282,3.415211772106612,2.716656582024708,0.5158142277206023,1.8119905015643936,-3.3830788465941444,1.9711276082710971,-1.2234516909210902,-1.3616801870239261,0.2000623323958139,0.5858252421740459,0.0012064876044245653,-2.5820963159434314,0.03930444792099662,1.4406054721235806,-0.8629738015020277,0.2193407730658809,-0.018339675440452417,0.5916224507074116,0.9841186420518516,3.235440599189743,0.2555023158039886,0.042961544487323,-0.4629461977581227,-0.5740073320275815,2.3217296640118663,1.188809618846198,0.8045785719359021,0.04482077647559682,-1.8208766758538901,-0.8011227803973168,-0.5109185374197585,-1.1042521853255085,-1.7027469659855898,1.0724547688756787,0.49735573390683874,-0.4375833718877551,1.1388788890107755,-0.7795802511052518,0.9427532402490123,0.24965890373876068,0.14768964156660225,-1.7667933997099705,1.2487876577887072,-2.6967627140974066,-1.157334352683635,0.014017348511595872,0.7618317421430214,-0.30493164030686537,0.06631911185425508,-0.4031357766672417,-0.03774559931299048,0.8221460612855042,0.11142512015530713,0.5767033489554857,-0.41421422592691065,0.5711685466898206,-0.05776783243600209,0.9549048655604053,0.04612363924588262,0.10466668766135714,-2.0068844205293868,1.5274521274000843,-0.7252195881947802,0.5709119148456134,0.7217947795816175,-0.1455650743921781,2.695856619882931,-0.32454829393558193,-0.20238544813670692,0.7638284160739855,-0.3116870984609545,1.0788849482316303,0.25565880572156713,-0.07845353409878708,0.11751619047806994,1.77748542577857,0.14794408382241042,-0.4621032300542222,-0.28355881913431763,-0.6127690409727566,0.8593492804084769,-0.7790260372041836,0.8447759282419112,0.5312073369235913,1.0884907976491962,0.8624345397742489,-0.5900187116896756,-0.5961401714577159,0.15381338566498418,0.3908499589055021,1.6987681070891176,-0.03125619572611083,0.11346299085067339,-0.5485333231942148,-0.7219342867420867,-0.5886985171530307
reuters-topics/grain/article578.txt,5.2016261936393615,-0.02998022374727884,0.3096029469616329,-1.1963423658710708,2.312667790287802,4.71869700125287,5.917192684036815,-2.474754970046818,1.829519234748421,-0.355870843971799,0.512122559898915,-0.6245339677196724,0.9245326314614289,0.9122585642236719,-0.21236762501445489,-0.845803889958322,-1.93406650809338,0.9716426316310253,-0.8885008679925627,-0.8886232289997269,-0.3294400029139748,-1.1239470467093209,0.10780567437538564,1.0314399828379492,0.07642042091095613,-0.7988202235177797,-0.05998205717351761,0.006797540787310313,0.008979531140560056,-1.0351311050779493,0.418667774657991,-0.8956115845742826,-0.10817899662004472,-0.4896682896510322,-0.463506223890199,-0.94879492227461,0.0937857277828523,-0.3330804575997479,-0.8197561379916671,0.6745722697637985,-0.11883444882731438,-0.1355882704014036,0.056992892871272016,0.753493994544309,0.13889847051965265,-0.8785715145756888,0.034437321934806676,-1.567102326421247,-0.19524370430060334,0.26364048639364907,-0.19011528241288816,0.2587725260421914,0.09168815174000297,-1.1268893725674733,0.6701732732367796,0.9996824234768262,0.5253433530764839,0.6051013235795722,0.079460587666785,-0.7203755362551636,0.3397013255582779,0.06877906429978191,0.4344755378213503,0.10674248362863996,-1.0063367599890074,-0.22115787482919502,0.5689670489838293,1.136231288125278,0.724013047328508,0.18943899005010248,-0.44189824097314506,-0.07577979295891443,0.26824217628041713,-0.009681546050892054,-0.11989314794613687,-0.025133673610973378,-0.6422040493083954,-0.451351171838351,0.1441601142823918,-0.26509044391788555,-0.17475676344292407,-1.17451341446432,-0.024591177554861746,1.0836540512497281,0.3476583208919342,0.31593284400847665,0.12054343653615772,0.8766447200237678,0.5923375241524671,-0.19524776637898406,0.007941613155358457,0.41155230550261446,0.5510327661181436,-0.865645302865695,-0.5835660324181009,0.2641872028105467,0.2621034475442847,-0.04888591976611675,-0.6901842649697687,-0.5702702413997844
reuters-topics/grain/article208.txt,27.948374732133985,-1.4449991111473746,1.4307226547765686,-2.370484881442787,2.312933642282347,1.3851665949417993,-1.8143317708601503,0.861353589801489,4.303475359902549,-5.5620623371994835,-0.19899900237094773,0.9897537942204883,1.2076753056824927,-2.8100103492581736,-0.5808367158472565,-0.06214006471564239,-3.382332417546762,1.4289607687332555,1.6277953830625287,5.995144393989248,2.5084068878000827,-1.6527300155091895,0.21326465534990835,-1.2644137498452717,2.2971454173365267,3.339066565086949,-0.5409995433762463,2.383731111530149,-2.0754016915618507,2.573314530366221,5.472383653220873,-2.4338274018305492,3.3270543524064466,-4.347536214261975,2.166590298529477,2.2711806542228574,1.403556473585763,-1.8200111647691013,1.4049195532985432,-2.4635177488051863,-4.018157991694357,-0.4761048894295287,1.0524623061141782,0.94407569685991,1.9067635220090797,2.794522429277416,-0.7458849194876914,-0.7218638246583828,1.0996670098050116,-3.561882005207128,-1.6836169998345991,1.166170645969871,0.435211375869207,2.292570528912725,1.0354752804867002,-0.26616661199644814,-0.6087128862843613,-0.13609889197327124,-0.5978411377797896,0.371048783056036,1.7682378150023925,-1.039364190013581,1.0954957398194187,0.23058258421329972,1.0558555487406818,0.24529203316809628,-0.5247583375281182,-0.8647180374406982,1.044128569207108,0.09058071557490316,1.541837018071976,0.3892156157952294,-0.6740731088170528,1.1753614362777427,-1.6284730649979609,-2.1161006289301283,0.34676289326415893,-2.080694789203937,1.5372191684920926,0.7927581449126632,0.24421826408936503,1.2172653201718409,-0.4324110716630866,-1.7499355109885901,0.33315642489041797,0.945862523741962,0.05918333733225154,-1.021844594750051,-0.753771084127011,-0.5867401089446997,-0.532734788998726,-0.20535493535919006,1.1247633068259792,-0.5152033376602457,-0.7023386135158389,0.22530216544451948,-0.7740554886304771,0.5330617766597839,-0.8314980615479263,0.18696283459284102
reuters-topics/grain/article552.txt,10.732805129954558,-1.2897046787794302,-0.25106615841799534,0.5368013307849706,1.0558200331889884,0.7968615153178936,-1.5367853753038125,1.8492083239983803,0.21943961199768164,-0.3686937448682737,0.9682436731489458,-1.7734100714972119,0.8291916173510585,-0.023019341737862725,-0.5059139503015451,-0.2791411051418924,-0.2963000031982522,-0.6606871368079592,-0.8698921667349699,0.9508060668105472,0.6235686149768781,-0.88554408700227,0.38628846833426245,-0.13250572975525593,1.1319361027509338,1.3759323623964985,-0.3231001917243493,-0.06268342734567318,-1.3799769254010337,1.410805243669996,1.3373150629759898,-2.278992329678393,-0.028006710367404153,-1.7203234192823846,0.20535471496968527,0.5965777234386304,-0.77979447191078,0.2119839722849832,-0.13023441194419233,-0.03517111368273657,-0.07346789110959334,-0.06448336456463535,-0.3443486578657404,-0.20230287943331043,0.2474500710349885,-0.16726442220947405,0.8513234535766123,0.6316165183500962,-0.2829417120782297,-1.6862645360765747,-0.24353864891502378,0.04045484531519002,-0.11039278910816386,-0.32151652624088395,0.7768258698133341,-0.4740972774534566,-0.4610950592254638,0.6654735176846598,0.3380798299856202,0.9673699663758878,-0.15276059370516518,-0.09681322338793617,0.13503964674575025,0.2649275501921289,-0.44810694797501666,0.5601235032421753,0.7974831242386488,-0.6327641780533008,-0.18613081978033358,0.2934357334328441,-0.14008238762152275,-0.24405267400694752,0.1509423491543186,0.33224235366174143,-0.40108760641672625,-0.6355803592196805,0.3456720025981117,-0.5056741093693148,0.3571051849759662,-0.38952703097496816,0.2700049394722846,0.2721621817429749,-0.07130475591751566,-0.037179698821425605,-0.08405088170687026,0.6589209645798854,0.25415874741328387,0.2665657529590191,-0.12974015828329657,-0.03888764711646063,-1.7044584822287299,-1.0855398230642912,-0.34084663740456966,0.17904304221853903,0.5245773632758636,-0.2967265454489725,-0.9017583040975726,-0.08776200135044376,0.24554015040905203,1.0412160236085477
reuters-topics/grain/article234.txt,11.847897303643784,-1.5835557645147422,-0.8417235080768843,3.6329466677679347,4.19848182764584,-2.386923466869236,2.8127239751540074,0.5463504148761107,-2.4774662558770486,-0.06740967578964176,-0.13421173850761856,0.5594105419007329,0.6642972268872939,-0.39818185642069703,-0.9472569358002585,-1.3280109082737361,0.995014671412164,0.2005946473942774,0.11533318891028772,0.4129335065332754,-1.4636964571953466,-1.7484870782376396,-1.4393312495761792,-0.6010235473724955,0.7543720152433961,-0.8579462306615614,1.288288340630657,0.6427101846585922,-0.9979635514354602,-1.4450817300707532,-0.257833754402851,-0.5468002044974661,0.10491058267186652,-0.3872889596857309,0.3085971673695923,-0.25454763668987773,0.2109781032186382,-1.223205767981204,0.059948381070516275,-1.1678922875136175,-0.20746571223038776,0.05963693186600638,-1.552195489512582,-1.3115544014802138,-1.2694487790396265,-0.5995324913373309,-0.2667785874919933,-0.4553222754491431,0.5405542236863942,0.7040380314824318,-0.054053898326657614,-1.2207267647022784,0.5281236814035705,0.4867260051454136,-0.6231550641629926,1.342299524857272,0.02791170908245754,0.12896332703420943,-0.2757886706368903,1.0544825564508595,-1.5026979957614186,0.6160468394514428,0.6925632483137011,-0.23894033687984362,0.6201593838186653,0.6334175143460027,0.24941626943898004,0.5377503724626694,1.2805082456076833,-0.48036294462446955,-0.0920528930998876,-0.09429546083817053,-0.12614759623951133,1.4085966490895439,0.6292280010643231,0.4252848319120501,-0.43859686969392636,-0.06363734235473426,-1.6657621798624735,0.39407700468638895,-0.2232327445272004,1.460443293092202,0.9492792843624769,-0.009512720071719443,-1.038916594511912,-0.6257324004274174,-0.7446494078783519,-0.01545234580098896,1.1641747644900586,-0.40825696929045074,-0.16573532131456756,0.3925986429333631,1.4820195066887731,0.38040644054421774,0.6039699541313741,-0.0948589234929318,0.23882318937666103,0.6256866294886779,0.026336058659122003,0.4253123100995488
reuters-topics/grain/article220.txt,69.92104070323727,-8.763162516853763,-4.862319417097377,15.39650629220486,13.371708551147764,10.282897536787083,-1.811713800442121,4.122713455300973,-7.328207245128043,-3.526004777469635,-14.75367400206414,-6.5619328989951,4.539994637859482,6.495195305622438,6.351273401703275,0.80306015025685,2.6422217061735638,3.3467584742662027,-7.701734478726681,4.722802002389527,-3.3824195445954426,-8.900744296851006,-4.334538105525659,-1.9178820349209467,3.8621166985178226,-0.43045134943657454,3.308622534233654,-2.0724420201639986,0.8456477649816473,2.3348119219032206,-6.309207348406068,-2.412456270168046,5.211466115430163,1.0915074144160588,1.336840359326924,0.735179237922466,1.648541345700103,0.8342435155241226,-1.0843804941696618,-3.3664463760566417,1.0904842994091146,2.9431037830237816,1.0139249036424443,0.08848112265499763,-0.9711926472672305,5.89199490480145,-1.3475231846772953,1.7405381773935746,-0.9075753596587232,0.8995262233942357,0.9871055902765398,-1.3530840933240116,1.424600322575366,-1.4539642823003407,-0.3486968451189076,1.554662762353416,-1.0891422729928533,2.5428564104489015,-0.9660308100215705,0.0005571740151791978,-0.22806419012711718,-5.74654082442694,1.0438130866020403,4.091774161484434,-2.5686981797999904,-0.2742381320576635,1.2592785894414318,-0.7684414402316746,-1.5075375016196302,1.5342314669642336,2.451275927767112,1.6766884998705043,3.7897449890739527,-0.6303083942015113,0.2249081654653659,-0.1719545843911938,-2.202411112944914,1.790657827287007,1.0278454549132152,-2.544601944462834,-1.7850312878142847,-1.8336736646090228,-0.3306834050135003,4.791322654131454,-2.465433072716362,-0.5610580904973425,2.4288124095414285,1.484417146987229,-1.5696299453909652,1.1449029115747633,-2.1893710736062233,-1.556396982446959,1.988048342779958,3.5533028968008633,-4.644840546995168,-1.6031065824244006,2.0199450792293248,0.9913603922683484,1.2703113082863269,-0.6451913125448516
reuters-topics/grain/article546.txt,23.81223010092388,-2.787637793056709,-1.6495150676608892,5.454203470871446,3.103824172980904,5.148958183729076,0.3290675132423082,6.452960966010699,-2.29956232087253,0.6710279347893628,1.035380666545232,-1.0134819865346902,0.018108200639484925,2.169611026933902,1.3050160557232489,-0.05691107729727164,1.4034903455509804,0.6463690232920314,-1.6868699001535143,-0.28361482641999985,-2.331310563263677,-2.3647948900018605,-3.3704781381890765,-1.7605603618579582,0.1359529350948296,-1.6591696501606152,1.4070712076284717,1.4108937488382673,-2.115237457540821,0.3847446058507248,-1.2597140210701208,-0.5243846204154676,1.4504603921773085,0.198767356526173,-0.03987589018740537,0.9396936640118086,0.8895114470120035,0.6048597535885165,0.26935869840794396,0.05150764068692536,-1.1809130666264374,0.9482928507993597,-0.6611117235907935,-0.6098677214996294,-0.7948712929700797,-0.005302149485313255,-1.2754714198043537,-0.30122578117588517,1.0575747989821207,-0.0765055224369461,-0.5583080775378562,-0.00036270156466814026,0.9627633451574532,-0.6837332632399848,0.3601857230805268,-1.01892987921283,-1.7007414683557902,0.6847955056017829,-1.7465640519535346,1.5222856827189133,1.440184035265166,1.3715965844160791,-0.10721944112028632,-1.2997295159220041,-1.009694106402022,1.2930476692971313,0.33633025555505475,-0.9010843306726152,1.5629382214146947,0.6498648078642858,-0.9528722961519209,-1.171244349424766,1.0317449573526554,0.9883221674381869,0.44769204335322216,0.22488587327165127,-0.22154859729902088,-0.2916995664135275,-1.1432621012099053,1.0920121314432694,0.39068628525243615,0.47239823142915066,0.1722965262130628,0.3846246527702434,-0.2999994858675476,-0.8391980068307859,0.5975398881860975,-1.0080016076621379,0.7669192793340975,-0.5815698408320359,-1.1284644266845354,-0.5267291578922443,1.455728102035117,1.3332661583586283,0.19056003674102448,0.6830614493368531,0.7783539637365379,0.5692901595459755,1.3423428578359644,0.3296186685858751
reuters-topics/grain/article036.txt,14.162311887749148,17.249710263730275,21.15648548699796,-12.127389894527566,4.152157607810548,-7.643990781503959,5.268480322961738,9.137647758002403,-11.804253652177426,-9.161244382683105,8.282064671133599,-10.478066676114953,-0.36679568016929953,31.24915986232778,-0.7798507283527966,41.14767095955503,-1.90171549878543,-8.118850902846466,21.440637206421886,3.089399784692642,-4.794708781351152,-2.536823251914181,9.564698842176371,8.257650701578518,1.293747189166133,-6.9157786727894415,-8.880436929112893,-7.819167567105672,2.2839826172949356,-3.116201773097022,-2.7850485793597777,-0.8959233351827086,-1.206440508944973,-4.09741955317825,0.4789613823430849,1.427021973086539,-3.4152065662794047,-3.288215050562926,1.4798208008838292,2.6111932548624406,2.138018493553466,4.027542889338661,0.44502462715462526,-5.011896036078207,2.9417548935518054,4.790307768850167,-0.7221741373567682,0.6017168620008421,-0.1557227231969632,-0.471674026456246,1.0199289789632746,-0.9204595189840533,2.660225965872625,1.9705215032389196,-3.2799850402644117,0.08383531927663353,-0.298077009033112,0.18755051393725003,0.0009245233513144758,5.261803181167578,-1.0047248759017804,0.37285610413497783,-0.9448472715565852,2.089547400191549,-2.51867809006771,0.5687328912988916,-0.30469969565442134,-0.6650668557740141,0.23096493304973412,0.4895907324599093,3.4301631165820976,-1.0204578408356133,1.268349062103038,2.475730933524327,-0.5007694633927481,-1.026375728523853,-1.449987525187146,-1.0220892864672586,1.0397341846536503,1.2285976663169982,-0.39907922532717793,-1.1260473616217885,-0.30176196660421184,1.4290405968683173,-1.860704820734886,1.7296628478333254,0.18342103418252437,-2.4857735145136752,0.3906281803332076,-0.7092902574433078,0.2085418844879001,0.8364539841699314,0.8580941458348597,-1.670615812891134,0.6167144224506648,-0.8149545989592796,1.6744165561667548,1.100847265847948,-0.6061755185424361,0.16229831588007132
reuters-topics/grain/article022.txt,9.168574073192726,-0.3748351494905892,-0.15609403156888632,0.18100822667752736,1.6732225998508687,1.6980301499318358,2.626298058866394,0.26017419854774654,1.351012776941357,-0.937454973962496,1.3344285410987737,1.182448152208678,-0.200917373041019,0.06230955525693597,-1.537053421272902,-1.3480810249011432,-1.0739318332935694,-0.008988141160025255,0.40171427758600936,-0.41777905535063004,-0.9634047292377077,-0.6011173946572497,-1.805475553935187,-0.33029065458547024,0.3607364371760678,-2.1910391900257005,0.4791006731923739,0.6173467707437132,-0.9412985344444829,-0.48627746930700605,-0.5325794372662653,-1.0326629360320738,-1.0746090364607384,-0.24086362225965874,1.4238832363824865,-0.49426906071710874,-1.1653283873813178,-0.7293249536960981,1.564526906527901,-1.0680356029436804,-0.2718807429766229,-1.4316885593646007,-0.5126647325928924,-0.5532412412777999,0.574975728496838,0.18280324999778777,0.21608930378752797,-1.479673218317689,-0.8389420434845518,1.2235522940099226,0.563159114642122,-0.3924584405313325,-0.09854830400789977,0.5188288732994353,-0.9298552765234042,0.9852823735122531,-0.018186395378821194,-0.8636313920801498,0.056976182556003334,0.7355730503927596,-0.14043766234584143,-0.31890063563446575,0.1754299586491874,-0.389925871831986,-0.905085174937505,-0.45015139744252947,-0.38254144242110616,0.20848513148645212,0.5692339427694101,-0.2621156028748616,0.3110638609196099,0.39035859025425795,-0.3662553936803312,-0.1111387240650797,0.47747123858874163,0.4896522786183549,0.05875162029311302,0.662370038104706,0.5998484143554261,-1.204532051369168,-0.6745962236141735,0.3093806691151595,0.5116914750542649,-0.953335527332165,-0.8552878712135349,0.4285921529297668,-0.6559053149500074,-0.460772890500348,-0.31033841556403385,-0.36758996062586935,0.3808626796340703,-0.25126454150961214,-0.33666454104790156,-0.205017256775158,-0.6108608938834066,0.11499006325041158,-0.053119612038169076,-0.0490495038839519,0.4077307621033012,0.2030371701721452
reuters-topics/grain/article181.txt,7.8350815299492576,1.1362450864506304,1.862542214264237,-1.6669751114091298,5.203473413806526,0.877886941232458,3.269543082900396,-1.4465419501121055,-0.2865673505545628,0.6368946768929726,2.843763114379834,-0.037167910621854296,-1.2298050149168225,-0.7882758268576427,0.8584888090064019,-0.3346914804517974,-0.24327208434087827,-0.1476936204188885,-0.00839144051181687,-1.5727007512476907,-1.7759251780545655,-1.3563511181559418,-2.207931860176384,-0.12807815989103638,0.46663514844472903,0.12764129248929135,-1.1975400180727807,1.3617273140855608,0.8535277462474453,-0.7470165787759564,-1.2791085432864828,0.2058278257733883,0.13427221829040029,0.4797236709198938,0.8244472127155513,0.048315879330598915,0.4703375878455567,-0.7597366524011309,-0.9533291153718703,0.42886716214559106,0.10649233962960003,0.20898050094104165,1.0805737957809647,0.13311021863614342,0.004523260751394066,-0.2655448679443751,-1.2758309872688285,-0.9724679389238279,0.40480516114556786,0.028112991150260516,-1.2426989265579833,0.47147585270884323,0.3344732893321762,-0.28822712459056116,-0.30104884920226227,0.3973300523215152,-0.26671117790739957,-0.38475939782862545,-0.6563340116968026,0.3649700985792583,-0.5127726243652992,0.6365779457001735,-0.15278924375807781,-0.4171814282116567,0.29728726219105317,-0.018185009923559262,-0.09921687082528757,0.60797980938885,0.08734869865223277,0.1020727614066199,-0.656355714695982,0.11618421516694173,0.24374416334348156,-0.7004073486800391,-0.2758591433798106,-0.07428050776011808,0.036414156453766694,0.01570599667091045,0.0071940676195284235,0.6831565175730243,-0.23178518864374228,0.33943046904403434,-0.8828676754852478,-0.2903593323565238,-0.17867836882519278,1.029670301569032,0.3353328506382148,1.037048866294703,-0.016029275526331897,-0.34931273268234037,-0.39151180352131976,0.25659937735800875,0.1477460644201296,-0.40862551501519034,-0.298501225723158,0.09013224407451163,-0.9120039685964374,-0.2868061243759112,0.17643949147384708,-0.1572775100176215
reuters-topics/grain/article195.txt,14.54742170958006,-1.2928910875987,0.21298864741176382,-0.8506186446503518,1.934013058920587,-2.3784596230339603,-2.7522554331463676,0.7089483354374932,3.59445659275716,-1.575065958876332,4.841470647016422,0.34403803493600144,0.6710814795839226,-0.6024181933226442,-3.0383469333277264,-0.42783665866603043,-0.6279774513544835,-1.3241580869398242,-0.7831979425934181,-2.9686983485957246,-0.429668371732138,-0.45767217834594287,0.599762720067557,-2.098218118734777,0.9295026180680708,-1.0785075493517369,0.013476148688337323,-0.9233743453187305,-0.649874121150425,0.47850587263969063,1.179386574870473,-0.6905059868303108,1.172084114009841,-0.7644402682907754,-0.532934358586927,-0.02701836109521673,0.1003425815563643,0.15830280985422185,-0.026205969631655723,0.7409667239538579,1.3420439248764915,-0.41661756787420695,-1.0183575888708405,-3.579319307207176,-0.00892900609543682,-0.14635204775414723,-0.1879980015108072,0.8102877282048186,-0.3454919997711844,0.7942619997455995,-0.7461981523655518,-0.3172704680247489,-0.015528665004535671,0.10244175184071178,0.9468561137281787,-0.6815247434355179,-0.8591580451865044,0.31496929259751294,0.10688074781633324,-0.5497523921205942,-0.9358509076144281,0.42523932109530105,0.27692055333375015,0.3883412325734766,-0.5690490234419637,-0.5199849304971769,0.3183353716756327,1.0484342975512853,-0.25537240098717273,0.05520182256927086,-0.44730452050311886,1.4573537009041029,0.4248809297453783,-0.4278524171230864,-0.024091163652876252,0.8190949106353586,-0.38431397587727795,1.3166649431232802,0.8321182512820569,-0.2565877875717353,0.29225641269884234,-0.9848882244637015,-0.6519197711273379,0.11546825206659023,2.020976512398962,-0.9683484779569935,1.1135457265010922,0.06353614418076255,0.3889185820549302,0.580415669130677,0.8404783721240591,1.4846662403290327,-0.006803614500096644,1.4152345930006152,-0.3072773479871593,-0.9277243634610173,0.4984666855992726,-0.24642712644305775,-0.34315825142412865,-1.7170933394652885
